{"learner": {"attributes": {"scikit_learn": "{\"_estimator_type\": \"classifier\"}"}, "feature_names": [], "feature_types": [], "gradient_booster": {"model": {"cats": {"enc": [], "feature_segments": [], "sorted_idx": []}, "gbtree_model_param": {"num_parallel_tree": "1", "num_trees": "200"}, "iteration_indptr": [0, 1, 2, 3, 4, 5, 6, 7, 8, 9, 10, 11, 12, 13, 14, 15, 16, 17, 18, 19, 20, 21, 22, 23, 24, 25, 26, 27, 28, 29, 30, 31, 32, 33, 34, 35, 36, 37, 38, 39, 40, 41, 42, 43, 44, 45, 46, 47, 48, 49, 50, 51, 52, 53, 54, 55, 56, 57, 58, 59, 60, 61, 62, 63, 64, 65, 66, 67, 68, 69, 70, 71, 72, 73, 74, 75, 76, 77, 78, 79, 80, 81, 82, 83, 84, 85, 86, 87, 88, 89, 90, 91, 92, 93, 94, 95, 96, 97, 98, 99, 100, 101, 102, 103, 104, 105, 106, 107, 108, 109, 110, 111, 112, 113, 114, 115, 116, 117, 118, 119, 120, 121, 122, 123, 124, 125, 126, 127, 128, 129, 130, 131, 132, 133, 134, 135, 136, 137, 138, 139, 140, 141, 142, 143, 144, 145, 146, 147, 148, 149, 150, 151, 152, 153, 154, 155, 156, 157, 158, 159, 160, 161, 162, 163, 164, 165, 166, 167, 168, 169, 170, 171, 172, 173, 174, 175, 176, 177, 178, 179, 180, 181, 182, 183, 184, 185, 186, 187, 188, 189, 190, 191, 192, 193, 194, 195, 196, 197, 198, 199, 200], "tree_info": [0, 0, 0, 0, 0, 0, 0, 0, 0, 0, 0, 0, 0, 0, 0, 0, 0, 0, 0, 0, 0, 0, 0, 0, 0, 0, 0, 0, 0, 0, 0, 0, 0, 0, 0, 0, 0, 0, 0, 0, 0, 0, 0, 0, 0, 0, 0, 0, 0, 0, 0, 0, 0, 0, 0, 0, 0, 0, 0, 0, 0, 0, 0, 0, 0, 0, 0, 0, 0, 0, 0, 0, 0, 0, 0, 0, 0, 0, 0, 0, 0, 0, 0, 0, 0, 0, 0, 0, 0, 0, 0, 0, 0, 0, 0, 0, 0, 0, 0, 0, 0, 0, 0, 0, 0, 0, 0, 0, 0, 0, 0, 0, 0, 0, 0, 0, 0, 0, 0, 0, 0, 0, 0, 0, 0, 0, 0, 0, 0, 0, 0, 0, 0, 0, 0, 0, 0, 0, 0, 0, 0, 0, 0, 0, 0, 0, 0, 0, 0, 0, 0, 0, 0, 0, 0, 0, 0, 0, 0, 0, 0, 0, 0, 0, 0, 0, 0, 0, 0, 0, 0, 0, 0, 0, 0, 0, 0, 0, 0, 0, 0, 0, 0, 0, 0, 0, 0, 0, 0, 0, 0, 0, 0, 0, 0, 0, 0, 0, 0, 0], "trees": [{"base_weights": [-8.0896584e-08, -1.1448228, 0.51330435, -0.12550387, -1.9328896, 0.8616883, -0.18843631, 0.4258447, -0.23314583, -2.0853868, -1.0523589, 0.076052636, 1.2313317, 1.0762619, -0.798602, -0.23164056, 0.76796305, -1.1128286, -2.231928, -1.9258269, -0.7392284, 0.2355232, -1.3371677, 1.387376, 0.818042, 1.3667983, 0.7903865, -1.6892422, 0.74267733, -1.9593296, 1.0047712, -1.7665354, 0.2523005, -2.2610018, -1.1470675, -1.0699661, -0.22466628, -2.03069, -0.38299266, 1.0728848, -0.1750668, -1.674793, 0.7889313, 1.4176668, 0.12669794, 0.6144838, 1.348176, 1.5658785, 1.1726446, 0.9856376, 0.4561776, -1.7718079, 1.2092546, 1.0819937, 0.016484987, -0.10621196, -0.22847962, 0.12108163, -0.097025335, -0.047517844, -0.23087125, -0.10459258, 0.08791256, -0.21022616, -0.23255582, 0.0069960426, -0.21786149, 0.019607197, -0.16468397, -0.058342945, -0.20849471, -0.08580122, 0.0072334963, -0.061186023, 0.12748104, 0.030553399, -0.14789248, -0.22900443, -0.11069268, 0.111896925, 0.0019015943, 0.118251, 0.15241951, -0.11839066, 0.07601592, 0.07512806, -0.103901245, 0.13737021, -0.07421716, 0.072983645, 0.15780589, 0.11972854, 0.003060921, 0.04294372, 0.115147844, 0.02483639, 0.10010218, -0.20561798, -0.12671381, 0.12806076, 0.006006214, 0.124806665, 0.052379854, -0.09020784, 0.12649862], "categories": [], "categories_nodes": [], "categories_segments": [], "categories_sizes": [], "default_left": [0, 0, 0, 0, 0, 0, 0, 0, 0, 0, 0, 0, 0, 0, 0, 0, 0, 0, 0, 0, 0, 0, 0, 0, 0, 0, 0, 0, 0, 0, 0, 0, 0, 0, 0, 0, 0, 0, 0, 0, 0, 0, 0, 0, 0, 0, 0, 0, 0, 0, 0, 0, 0, 0, 0, 0, 0, 0, 0, 0, 0, 0, 0, 0, 0, 0, 0, 0, 0, 0, 0, 0, 0, 0, 0, 0, 0, 0, 0, 0, 0, 0, 0, 0, 0, 0, 0, 0, 0, 0, 0, 0, 0, 0, 0, 0, 0, 0, 0, 0, 0, 0, 0, 0, 0], "id": 0, "left_children": [1, 3, 5, 7, 9, 11, 13, 15, -1, 17, 19, 21, 23, 25, 27, -1, 29, 31, 33, 35, 37, 39, 41, 43, 45, 47, 49, 51, 53, 55, 57, 59, 61, 63, 65, 67, -1, 69, 71, 73, 75, 77, 79, 81, 83, 85, 87, 89, 91, 93, 95, 97, 99, 101, 103, -1, -1, -1, -1, -1, -1, -1, -1, -1, -1, -1, -1, -1, -1, -1, -1, -1, -1, -1, -1, -1, -1, -1, -1, -1, -1, -1, -1, -1, -1, -1, -1, -1, -1, -1, -1, -1, -1, -1, -1, -1, -1, -1, -1, -1, -1, -1, -1, -1, -1], "loss_changes": [4216.036, 1783.8652, 1211.1681, 1180.1249, 165.9917, 961.2417, 1269.6216, 730.2434, 0.0, 149.52783, 49.700027, 239.2578, 144.04102, 43.39789, 1524.5042, 0.0, 448.30927, 126.86322, 26.611328, 10.969391, 63.270065, 328.04065, 78.60069, 62.167236, 66.015015, 8.376465, 17.31871, 170.51855, 100.29089, 13.79512, 260.21228, 66.05768, 38.959087, 4.341797, 33.040287, 11.415665, 0.0, 1.1287994, 23.929327, 107.55957, 401.93823, 30.03598, 3.9002771, 38.135254, 33.61598, 102.43239, 10.144714, 0.14633179, 3.8396606, 15.280167, 11.331686, 95.62842, 1.5696888, 25.06427, 150.97731, 0.0, 0.0, 0.0, 0.0, 0.0, 0.0, 0.0, 0.0, 0.0, 0.0, 0.0, 0.0, 0.0, 0.0, 0.0, 0.0, 0.0, 0.0, 0.0, 0.0, 0.0, 0.0, 0.0, 0.0, 0.0, 0.0, 0.0, 0.0, 0.0, 0.0, 0.0, 0.0, 0.0, 0.0, 0.0, 0.0, 0.0, 0.0, 0.0, 0.0, 0.0, 0.0, 0.0, 0.0, 0.0, 0.0, 0.0, 0.0, 0.0, 0.0], "parents": [2147483647, 0, 0, 1, 1, 2, 2, 3, 3, 4, 4, 5, 5, 6, 6, 7, 7, 9, 9, 10, 10, 11, 11, 12, 12, 13, 13, 14, 14, 16, 16, 17, 17, 18, 18, 19, 19, 20, 20, 21, 21, 22, 22, 23, 23, 24, 24, 25, 25, 26, 26, 27, 27, 28, 28, 29, 29, 30, 30, 31, 31, 32, 32, 33, 33, 34, 34, 35, 35, 37, 37, 38, 38, 39, 39, 40, 40, 41, 41, 42, 42, 43, 43, 44, 44, 45, 45, 46, 46, 47, 47, 48, 48, 49, 49, 50, 50, 51, 51, 52, 52, 53, 53, 54, 54], "right_children": [2, 4, 6, 8, 10, 12, 14, 16, -1, 18, 20, 22, 24, 26, 28, -1, 30, 32, 34, 36, 38, 40, 42, 44, 46, 48, 50, 52, 54, 56, 58, 60, 62, 64, 66, 68, -1, 70, 72, 74, 76, 78, 80, 82, 84, 86, 88, 90, 92, 94, 96, 98, 100, 102, 104, -1, -1, -1, -1, -1, -1, -1, -1, -1, -1, -1, -1, -1, -1, -1, -1, -1, -1, -1, -1, -1, -1, -1, -1, -1, -1, -1, -1, -1, -1, -1, -1, -1, -1, -1, -1, -1, -1, -1, -1, -1, -1, -1, -1, -1, -1, -1, -1, -1, -1], "split_conditions": [-0.46105027, 0.3856963, 0.5308806, -0.67520046, 1.1344378, -0.7039159, 0.39555058, -1.2340896, -0.23314583, -1.317651, -0.35445192, 1.8557411, 0.22218145, -0.5086961, -0.097817935, -0.23164056, -1.5318013, -1.5318013, -0.3692625, -1.317651, -1.5318013, -0.50713223, 1.6804519, 1.2785248, -0.28719655, -0.51655775, 1.4569778, 1.2521514, 1.765677, -0.7039159, 1.8557411, -0.7039159, -0.7039159, 0.88171214, -0.67520046, -0.17588177, -0.22466628, -1.3213141, -0.51715106, -0.2950957, -0.51314604, -0.24690005, -1.012615, -0.6063354, -0.28719655, 0.78250897, 1.6753374, -1.5840764, 1.5934078, 0.83957964, -0.66595376, 0.823851, 0.74607867, 1.1793216, 1.2278323, -0.10621196, -0.22847962, 0.12108163, -0.097025335, -0.047517844, -0.23087125, -0.10459258, 0.08791256, -0.21022616, -0.23255582, 0.0069960426, -0.21786149, 0.019607197, -0.16468397, -0.058342945, -0.20849471, -0.08580122, 0.0072334963, -0.061186023, 0.12748104, 0.030553399, -0.14789248, -0.22900443, -0.11069268, 0.111896925, 0.0019015943, 0.118251, 0.15241951, -0.11839066, 0.07601592, 0.07512806, -0.103901245, 0.13737021, -0.07421716, 0.072983645, 0.15780589, 0.11972854, 0.003060921, 0.04294372, 0.115147844, 0.02483639, 0.10010218, -0.20561798, -0.12671381, 0.12806076, 0.006006214, 0.124806665, 0.052379854, -0.09020784, 0.12649862], "split_indices": [0, 2, 7, 0, 3, 7, 0, 4, 0, 0, 1, 5, 7, 5, 4, 0, 0, 0, 5, 0, 0, 2, 0, 2, 4, 5, 7, 0, 7, 7, 5, 7, 7, 2, 0, 6, 0, 7, 5, 5, 5, 0, 7, 2, 4, 2, 2, 3, 3, 7, 4, 0, 3, 2, 4, 0, 0, 0, 0, 0, 0, 0, 0, 0, 0, 0, 0, 0, 0, 0, 0, 0, 0, 0, 0, 0, 0, 0, 0, 0, 0, 0, 0, 0, 0, 0, 0, 0, 0, 0, 0, 0, 0, 0, 0, 0, 0, 0, 0, 0, 0, 0, 0, 0, 0], "split_type": [0, 0, 0, 0, 0, 0, 0, 0, 0, 0, 0, 0, 0, 0, 0, 0, 0, 0, 0, 0, 0, 0, 0, 0, 0, 0, 0, 0, 0, 0, 0, 0, 0, 0, 0, 0, 0, 0, 0, 0, 0, 0, 0, 0, 0, 0, 0, 0, 0, 0, 0, 0, 0, 0, 0, 0, 0, 0, 0, 0, 0, 0, 0, 0, 0, 0, 0, 0, 0, 0, 0, 0, 0, 0, 0, 0, 0, 0, 0, 0, 0, 0, 0, 0, 0, 0, 0, 0, 0, 0, 0, 0, 0, 0, 0, 0, 0, 0, 0, 0, 0, 0, 0, 0, 0], "sum_hessian": [7172.4897, 2219.998, 4952.4917, 968.4818, 1251.5164, 3309.3262, 1643.1655, 775.4704, 193.01141, 1065.5991, 185.9172, 1059.2388, 2250.0874, 534.51196, 1108.6536, 85.37514, 690.0953, 140.66104, 924.93805, 47.70244, 138.21475, 952.581, 106.65776, 1631.6681, 618.4193, 263.2196, 271.29233, 702.5713, 406.0823, 54.55202, 635.5433, 94.91562, 45.745415, 899.7414, 25.196672, 14.188417, 33.514023, 28.86609, 109.34867, 312.8791, 639.70197, 92.22472, 14.433045, 1593.2615, 38.406578, 448.40292, 170.01639, 126.47262, 136.747, 170.01639, 101.27595, 683.49036, 19.080976, 276.4295, 129.65279, 15.656185, 38.895836, 575.85406, 59.689205, 28.621464, 66.29416, 14.677673, 31.067743, 269.82455, 629.9168, 11.986767, 13.209907, 4.64793, 9.540488, 1.4677674, 27.398323, 53.08425, 56.264416, 33.269394, 279.60968, 467.97314, 171.72878, 42.809883, 49.414833, 9.785116, 4.64793, 500.50867, 1092.7528, 12.231395, 26.175184, 414.6443, 33.758648, 168.30399, 1.7123952, 2.6909068, 123.781715, 133.81146, 2.9355347, 39.874348, 130.14204, 74.36688, 26.90907, 435.19302, 248.29732, 17.857836, 1.2231395, 212.09238, 64.337135, 74.85613, 54.796646], "tree_param": {"num_deleted": "0", "num_feature": "8", "num_nodes": "105", "size_leaf_vector": "1"}}, {"base_weights": [0.0012960378, -1.021273, 0.46877727, -0.112552434, -1.7083802, 0.7894628, -0.16815427, 0.38830376, -0.20537114, -1.8402884, -0.9401928, 0.06922326, 1.1346221, 0.9893616, -0.7130748, -0.20423047, 0.7025462, -0.9929033, -1.9665593, -1.7088555, -0.6620009, 0.212548, -1.2004987, 1.282334, 0.74764735, 1.2635531, 0.722564, -1.4934212, 0.67915523, -1.7356058, 0.92203814, -1.565107, 0.22866261, -1.9913989, -1.0289606, -0.9617196, -0.19859064, -1.8005055, -0.34356624, 0.9776777, -0.15717801, -1.4948772, 0.7104363, 1.3110223, 0.11398355, 0.5592574, 1.2450855, 1.4541348, 1.0792534, 0.9039676, 0.41502318, -1.5650436, 1.1186606, 0.9939795, 0.016024923, -0.09500946, -0.20182791, 0.111461595, -0.08640378, -0.042646237, -0.20364666, -0.093618676, 0.080600195, -0.185319, -0.20475829, 0.0063567306, -0.19368379, 0.018039988, -0.14728223, -0.054607328, -0.18457396, -0.076518476, 0.0065300325, -0.05479112, 0.11649879, 0.027641132, -0.13091676, -0.20220152, -0.09946572, 0.10364889, -0.0060657538, 0.10879236, 0.14128308, -0.10599132, 0.06957396, 0.06851946, -0.092603445, 0.12695283, -0.06909066, 0.14605276, 0.04310406, 0.11304357, 0.0487278, 0.03902411, 0.10592089, 0.02247419, 0.09203442, -0.18126331, -0.11234365, 0.11858948, 0.0056786793, 0.115012884, 0.047632843, -0.080357715, 0.116749085], "categories": [], "categories_nodes": [], "categories_segments": [], "categories_sizes": [], "default_left": [0, 0, 0, 0, 0, 0, 0, 0, 0, 0, 0, 0, 0, 0, 0, 0, 0, 0, 0, 0, 0, 0, 0, 0, 0, 0, 0, 0, 0, 0, 0, 0, 0, 0, 0, 0, 0, 0, 0, 0, 0, 0, 0, 0, 0, 0, 0, 0, 0, 0, 0, 0, 0, 0, 0, 0, 0, 0, 0, 0, 0, 0, 0, 0, 0, 0, 0, 0, 0, 0, 0, 0, 0, 0, 0, 0, 0, 0, 0, 0, 0, 0, 0, 0, 0, 0, 0, 0, 0, 0, 0, 0, 0, 0, 0, 0, 0, 0, 0, 0, 0, 0, 0, 0, 0], "id": 1, "left_children": [1, 3, 5, 7, 9, 11, 13, 15, -1, 17, 19, 21, 23, 25, 27, -1, 29, 31, 33, 35, 37, 39, 41, 43, 45, 47, 49, 51, 53, 55, 57, 59, 61, 63, 65, 67, -1, 69, 71, 73, 75, 77, 79, 81, 83, 85, 87, 89, 91, 93, 95, 97, 99, 101, 103, -1, -1, -1, -1, -1, -1, -1, -1, -1, -1, -1, -1, -1, -1, -1, -1, -1, -1, -1, -1, -1, -1, -1, -1, -1, -1, -1, -1, -1, -1, -1, -1, -1, -1, -1, -1, -1, -1, -1, -1, -1, -1, -1, -1, -1, -1, -1, -1, -1, -1], "loss_changes": [3410.7922, 1397.5164, 1000.276, 938.9133, 127.42749, 809.59644, 1035.5042, 587.91156, 0.0, 114.33374, 39.249374, 192.47113, 124.89453, 37.532043, 1213.4995, 0.0, 365.8688, 100.28612, 19.955322, 8.34671, 50.241886, 268.88327, 61.413208, 53.2146, 56.529053, 7.4871216, 14.615143, 135.60718, 83.81448, 10.641968, 215.97687, 51.452972, 32.01077, 3.3444824, 26.362457, 9.221842, 0.0, 0.71858215, 19.161182, 89.115845, 320.6979, 22.586624, 3.833808, 33.755615, 27.543056, 83.82184, 8.776062, 0.18069458, 3.538269, 12.997513, 9.5563545, 74.15112, 1.3375607, 21.459412, 123.891266, 0.0, 0.0, 0.0, 0.0, 0.0, 0.0, 0.0, 0.0, 0.0, 0.0, 0.0, 0.0, 0.0, 0.0, 0.0, 0.0, 0.0, 0.0, 0.0, 0.0, 0.0, 0.0, 0.0, 0.0, 0.0, 0.0, 0.0, 0.0, 0.0, 0.0, 0.0, 0.0, 0.0, 0.0, 0.0, 0.0, 0.0, 0.0, 0.0, 0.0, 0.0, 0.0, 0.0, 0.0, 0.0, 0.0, 0.0, 0.0, 0.0, 0.0], "parents": [2147483647, 0, 0, 1, 1, 2, 2, 3, 3, 4, 4, 5, 5, 6, 6, 7, 7, 9, 9, 10, 10, 11, 11, 12, 12, 13, 13, 14, 14, 16, 16, 17, 17, 18, 18, 19, 19, 20, 20, 21, 21, 22, 22, 23, 23, 24, 24, 25, 25, 26, 26, 27, 27, 28, 28, 29, 29, 30, 30, 31, 31, 32, 32, 33, 33, 34, 34, 35, 35, 37, 37, 38, 38, 39, 39, 40, 40, 41, 41, 42, 42, 43, 43, 44, 44, 45, 45, 46, 46, 47, 47, 48, 48, 49, 49, 50, 50, 51, 51, 52, 52, 53, 53, 54, 54], "right_children": [2, 4, 6, 8, 10, 12, 14, 16, -1, 18, 20, 22, 24, 26, 28, -1, 30, 32, 34, 36, 38, 40, 42, 44, 46, 48, 50, 52, 54, 56, 58, 60, 62, 64, 66, 68, -1, 70, 72, 74, 76, 78, 80, 82, 84, 86, 88, 90, 92, 94, 96, 98, 100, 102, 104, -1, -1, -1, -1, -1, -1, -1, -1, -1, -1, -1, -1, -1, -1, -1, -1, -1, -1, -1, -1, -1, -1, -1, -1, -1, -1, -1, -1, -1, -1, -1, -1, -1, -1, -1, -1, -1, -1, -1, -1, -1, -1, -1, -1, -1, -1, -1, -1, -1, -1], "split_conditions": [-0.46105027, 0.3856963, 0.5308806, -0.67520046, 1.1344378, -0.7039159, 0.39555058, -1.2340896, -0.20537114, -1.317651, -0.35445192, 3.339077, 0.22218145, -0.5086961, -0.097817935, -0.20423047, -1.5318013, -1.5318013, -0.3692625, -1.317651, -1.5318013, -0.50713223, 1.6804519, 1.2785248, -0.28719655, -0.51655775, 1.4569778, 1.2521514, 1.765677, -0.7039159, 1.8557411, -0.7039159, -0.7039159, 0.88171214, -0.67520046, -0.17588177, -0.19859064, -1.3213141, -0.51715106, -0.2950957, -0.51314604, -0.24690005, -1.012615, -0.6063354, -0.28719655, 0.78250897, 1.6753374, 1.3689134, 0.18140036, 0.83957964, -0.66595376, 0.823851, 0.74607867, 1.1793216, 1.2278323, -0.09500946, -0.20182791, 0.111461595, -0.08640378, -0.042646237, -0.20364666, -0.093618676, 0.080600195, -0.185319, -0.20475829, 0.0063567306, -0.19368379, 0.018039988, -0.14728223, -0.054607328, -0.18457396, -0.076518476, 0.0065300325, -0.05479112, 0.11649879, 0.027641132, -0.13091676, -0.20220152, -0.09946572, 0.10364889, -0.0060657538, 0.10879236, 0.14128308, -0.10599132, 0.06957396, 0.06851946, -0.092603445, 0.12695283, -0.06909066, 0.14605276, 0.04310406, 0.11304357, 0.0487278, 0.03902411, 0.10592089, 0.02247419, 0.09203442, -0.18126331, -0.11234365, 0.11858948, 0.0056786793, 0.115012884, 0.047632843, -0.080357715, 0.116749085], "split_indices": [0, 2, 7, 0, 3, 7, 0, 4, 0, 0, 1, 5, 7, 5, 4, 0, 0, 0, 5, 0, 0, 2, 0, 2, 4, 5, 7, 0, 7, 7, 5, 7, 7, 2, 0, 6, 0, 7, 5, 5, 5, 0, 7, 2, 4, 2, 2, 6, 0, 7, 4, 0, 3, 2, 4, 0, 0, 0, 0, 0, 0, 0, 0, 0, 0, 0, 0, 0, 0, 0, 0, 0, 0, 0, 0, 0, 0, 0, 0, 0, 0, 0, 0, 0, 0, 0, 0, 0, 0, 0, 0, 0, 0, 0, 0, 0, 0, 0, 0, 0, 0, 0, 0, 0, 0], "split_type": [0, 0, 0, 0, 0, 0, 0, 0, 0, 0, 0, 0, 0, 0, 0, 0, 0, 0, 0, 0, 0, 0, 0, 0, 0, 0, 0, 0, 0, 0, 0, 0, 0, 0, 0, 0, 0, 0, 0, 0, 0, 0, 0, 0, 0, 0, 0, 0, 0, 0, 0, 0, 0, 0, 0, 0, 0, 0, 0, 0, 0, 0, 0, 0, 0, 0, 0, 0, 0, 0, 0, 0, 0, 0, 0, 0, 0, 0, 0, 0, 0, 0, 0, 0, 0, 0, 0, 0, 0, 0, 0, 0, 0, 0, 0, 0, 0, 0, 0, 0, 0, 0, 0, 0, 0], "sum_hessian": [7133.0713, 2237.524, 4895.5474, 963.9001, 1273.6239, 3255.9736, 1639.5737, 766.8405, 197.05959, 1085.7844, 187.83954, 1055.2329, 2200.7407, 524.5382, 1115.0355, 87.16165, 679.67883, 141.962, 943.8224, 48.54999, 139.28955, 948.9493, 106.28369, 1591.0922, 609.6486, 256.84207, 267.69617, 714.4903, 400.54523, 55.563477, 624.11536, 96.4853, 45.476704, 918.3683, 25.454115, 14.342683, 34.20731, 29.42645, 109.8631, 308.62363, 640.3256, 92.284966, 13.998728, 1552.8407, 38.251408, 443.72516, 165.92346, 122.88175, 133.96031, 167.15819, 100.537964, 695.8122, 18.678095, 271.26294, 129.28227, 15.857821, 39.705654, 563.711, 60.404346, 28.805574, 67.679726, 14.8644285, 30.612274, 275.2516, 643.1167, 11.974337, 13.479778, 4.6341543, 9.7085285, 1.4791386, 27.947311, 53.659035, 56.204063, 33.53832, 275.0853, 465.77563, 174.55, 43.45223, 48.832737, 9.596657, 4.402071, 490.23822, 1062.6025, 12.4026985, 25.848711, 409.5392, 34.185936, 164.19469, 1.7287879, 121.69378, 1.1879737, 122.46259, 11.497721, 39.60629, 127.5519, 74.08545, 26.45251, 443.8568, 251.9554, 17.456041, 1.2220522, 207.46065, 63.8023, 75.70111, 53.58117], "tree_param": {"num_deleted": "0", "num_feature": "8", "num_nodes": "105", "size_leaf_vector": "1"}}, {"base_weights": [0.001886074, -0.92730534, 0.43077236, -0.102808155, -1.5424398, 0.72713345, -0.15178041, 0.3565462, -0.18571083, -1.6621256, -0.8484129, 0.06310681, 1.0516402, 0.9134756, -0.6445848, -0.78727514, 0.9391974, -0.8985662, -1.775815, -0.62810194, -1.6927428, -0.68995166, 0.2645467, 1.1935388, 0.6853339, 1.1757759, 0.66209036, -1.3419715, 0.6236973, -1.7502202, 0.44696456, 1.1251256, -0.68864346, -1.4128273, 0.20789298, -1.7981292, -0.9343828, -0.2793127, -1.3180666, -1.2205207, -0.18965468, -0.39982498, -0.18327104, 1.0547909, -0.021861665, 1.221004, 0.10281526, 0.50983566, 1.1572639, 1.3620522, 0.9979618, 0.83176565, 0.377872, -1.4055188, 1.0401081, 0.9167976, 0.015611641, -0.14995073, -0.18517171, -0.009606054, 0.118095, 0.1271296, 0.07063773, -0.14072359, 0.12214058, -0.038335886, -0.18427132, -0.08428147, 0.074054144, -0.16695096, -0.18506742, 0.005775457, -0.1759489, -0.06653439, 0.015698357, 0.029060263, -0.17463346, 0.0133801, -0.1357135, 0.10620054, -0.11411855, 0.1252611, 0.06212147, -0.020099686, 0.10563504, 0.100541614, 0.13204703, -0.0955644, 0.063770466, -0.01226083, 0.077455424, 0.11808526, -0.06443543, 0.059172936, 0.13739718, 0.1021932, -0.0056006657, 0.035468824, 0.0978447, 0.020334655, 0.08486951, -0.08445343, -0.15903117, 0.110413395, 0.0053690425, 0.10653273, 0.043334678, -0.07192749, 0.108322226], "categories": [], "categories_nodes": [], "categories_segments": [], "categories_sizes": [], "default_left": [0, 0, 0, 0, 0, 0, 0, 0, 0, 0, 0, 0, 0, 0, 0, 0, 0, 0, 0, 0, 0, 0, 0, 0, 0, 0, 0, 0, 0, 0, 0, 0, 0, 0, 0, 0, 0, 0, 0, 0, 0, 0, 0, 0, 0, 0, 0, 0, 0, 0, 0, 0, 0, 0, 0, 0, 0, 0, 0, 0, 0, 0, 0, 0, 0, 0, 0, 0, 0, 0, 0, 0, 0, 0, 0, 0, 0, 0, 0, 0, 0, 0, 0, 0, 0, 0, 0, 0, 0, 0, 0, 0, 0, 0, 0, 0, 0, 0, 0, 0, 0, 0, 0, 0, 0, 0, 0, 0, 0], "id": 2, "left_children": [1, 3, 5, 7, 9, 11, 13, 15, -1, 17, 19, 21, 23, 25, 27, 29, 31, 33, 35, 37, 39, 41, 43, 45, 47, 49, 51, 53, 55, 57, 59, 61, 63, 65, 67, 69, 71, 73, 75, 77, -1, 79, -1, 81, 83, 85, 87, 89, 91, 93, 95, 97, 99, 101, 103, 105, 107, -1, -1, -1, -1, -1, -1, -1, -1, -1, -1, -1, -1, -1, -1, -1, -1, -1, -1, -1, -1, -1, -1, -1, -1, -1, -1, -1, -1, -1, -1, -1, -1, -1, -1, -1, -1, -1, -1, -1, -1, -1, -1, -1, -1, -1, -1, -1, -1, -1, -1, -1, -1], "loss_changes": [2801.7385, 1125.8899, 830.5672, 766.0094, 104.2063, 686.9741, 852.4825, 502.91028, 0.0, 92.45459, 34.10486, 159.11792, 110.50293, 33.09317, 982.68787, 303.6568, 152.00455, 81.33978, 16.006592, 36.097195, 1.3936844, 72.66841, 187.27513, 46.07837, 49.131714, 6.9245605, 12.44545, 109.93115, 70.30144, 0.8711853, 44.94568, 26.573914, 72.87266, 42.383835, 26.40563, 3.1047363, 21.727322, 17.269678, 35.375107, 2.849968, 0.0, 193.94893, 0.0, 18.10028, 117.68872, 30.931396, 22.675625, 73.6578, 7.643219, 0.28330994, 3.3843536, 11.188705, 8.105426, 71.053955, 1.1529369, 18.65268, 102.248795, 0.0, 0.0, 0.0, 0.0, 0.0, 0.0, 0.0, 0.0, 0.0, 0.0, 0.0, 0.0, 0.0, 0.0, 0.0, 0.0, 0.0, 0.0, 0.0, 0.0, 0.0, 0.0, 0.0, 0.0, 0.0, 0.0, 0.0, 0.0, 0.0, 0.0, 0.0, 0.0, 0.0, 0.0, 0.0, 0.0, 0.0, 0.0, 0.0, 0.0, 0.0, 0.0, 0.0, 0.0, 0.0, 0.0, 0.0, 0.0, 0.0, 0.0, 0.0, 0.0], "parents": [2147483647, 0, 0, 1, 1, 2, 2, 3, 3, 4, 4, 5, 5, 6, 6, 7, 7, 9, 9, 10, 10, 11, 11, 12, 12, 13, 13, 14, 14, 15, 15, 16, 16, 17, 17, 18, 18, 19, 19, 20, 20, 21, 21, 22, 22, 23, 23, 24, 24, 25, 25, 26, 26, 27, 27, 28, 28, 29, 29, 30, 30, 31, 31, 32, 32, 33, 33, 34, 34, 35, 35, 36, 36, 37, 37, 38, 38, 39, 39, 41, 41, 43, 43, 44, 44, 45, 45, 46, 46, 47, 47, 48, 48, 49, 49, 50, 50, 51, 51, 52, 52, 53, 53, 54, 54, 55, 55, 56, 56], "right_children": [2, 4, 6, 8, 10, 12, 14, 16, -1, 18, 20, 22, 24, 26, 28, 30, 32, 34, 36, 38, 40, 42, 44, 46, 48, 50, 52, 54, 56, 58, 60, 62, 64, 66, 68, 70, 72, 74, 76, 78, -1, 80, -1, 82, 84, 86, 88, 90, 92, 94, 96, 98, 100, 102, 104, 106, 108, -1, -1, -1, -1, -1, -1, -1, -1, -1, -1, -1, -1, -1, -1, -1, -1, -1, -1, -1, -1, -1, -1, -1, -1, -1, -1, -1, -1, -1, -1, -1, -1, -1, -1, -1, -1, -1, -1, -1, -1, -1, -1, -1, -1, -1, -1, -1, -1, -1, -1, -1, -1], "split_conditions": [-0.46105027, 0.3856963, 0.5308806, -0.67520046, 1.1344378, -0.7039159, 0.39555058, 0.28093928, -0.18571083, -1.317651, 0.5964275, -0.24690005, 0.22218145, -0.5086961, -0.097817935, -1.1035008, 1.8557411, -1.5318013, -0.3692625, -1.044711, -0.7039159, 1.8557411, 0.39555058, 1.2785248, -0.28719655, -0.51655775, 1.4569778, 1.2521514, 1.765677, -0.7039159, -0.6063354, 0.22218145, -0.7039159, -0.7039159, -0.7039159, 0.88171214, -0.67520046, -0.51715106, 1.2933121, 0.8384244, -0.18965468, -0.50713223, -0.18327104, -1.012615, 1.6804519, -0.6063354, -0.28719655, -0.14388445, 1.6753374, -1.5840764, 1.5934078, 0.83957964, -0.66595376, 0.83957964, 0.74607867, 1.1793216, 1.2278323, -0.14995073, -0.18517171, -0.009606054, 0.118095, 0.1271296, 0.07063773, -0.14072359, 0.12214058, -0.038335886, -0.18427132, -0.08428147, 0.074054144, -0.16695096, -0.18506742, 0.005775457, -0.1759489, -0.06653439, 0.015698357, 0.029060263, -0.17463346, 0.0133801, -0.1357135, 0.10620054, -0.11411855, 0.1252611, 0.06212147, -0.020099686, 0.10563504, 0.100541614, 0.13204703, -0.0955644, 0.063770466, -0.01226083, 0.077455424, 0.11808526, -0.06443543, 0.059172936, 0.13739718, 0.1021932, -0.0056006657, 0.035468824, 0.0978447, 0.020334655, 0.08486951, -0.08445343, -0.15903117, 0.110413395, 0.0053690425, 0.10653273, 0.043334678, -0.07192749, 0.108322226], "split_indices": [0, 2, 7, 0, 3, 7, 0, 4, 0, 0, 6, 0, 7, 5, 4, 0, 5, 0, 5, 4, 7, 5, 0, 2, 4, 5, 7, 0, 7, 7, 2, 7, 7, 7, 7, 2, 0, 5, 3, 6, 0, 2, 0, 7, 0, 2, 4, 5, 2, 3, 3, 7, 4, 7, 3, 2, 4, 0, 0, 0, 0, 0, 0, 0, 0, 0, 0, 0, 0, 0, 0, 0, 0, 0, 0, 0, 0, 0, 0, 0, 0, 0, 0, 0, 0, 0, 0, 0, 0, 0, 0, 0, 0, 0, 0, 0, 0, 0, 0, 0, 0, 0, 0, 0, 0, 0, 0, 0, 0], "split_type": [0, 0, 0, 0, 0, 0, 0, 0, 0, 0, 0, 0, 0, 0, 0, 0, 0, 0, 0, 0, 0, 0, 0, 0, 0, 0, 0, 0, 0, 0, 0, 0, 0, 0, 0, 0, 0, 0, 0, 0, 0, 0, 0, 0, 0, 0, 0, 0, 0, 0, 0, 0, 0, 0, 0, 0, 0, 0, 0, 0, 0, 0, 0, 0, 0, 0, 0, 0, 0, 0, 0, 0, 0, 0, 0, 0, 0, 0, 0, 0, 0, 0, 0, 0, 0, 0, 0, 0, 0, 0, 0, 0, 0, 0, 0, 0, 0, 0, 0, 0, 0, 0, 0, 0, 0, 0, 0, 0, 0], "sum_hessian": [7028.401, 2219.2297, 4809.1714, 948.74445, 1270.4852, 3187.4016, 1621.7698, 752.5024, 196.24207, 1082.4248, 188.06033, 1046.7231, 2140.6785, 512.68524, 1109.0845, 253.83653, 498.66586, 141.43376, 940.9911, 150.52719, 37.53314, 220.39143, 826.3317, 1541.3405, 599.3379, 249.09616, 263.58905, 715.5622, 393.5223, 142.3545, 111.482025, 447.8251, 50.840748, 96.367226, 45.066532, 915.5738, 25.417307, 100.9168, 49.610397, 13.422151, 24.110989, 176.84375, 43.54769, 219.10498, 607.22675, 1503.3652, 37.9753, 438.3919, 160.94595, 118.400734, 130.69542, 163.84741, 99.74165, 697.36835, 18.193895, 265.19116, 128.33113, 45.568172, 96.78634, 64.575905, 46.906124, 330.4431, 117.38199, 37.133682, 13.707064, 28.94441, 67.42281, 14.964703, 30.101831, 275.05847, 640.5153, 11.962805, 13.454502, 53.264153, 47.652645, 10.498219, 39.11218, 1.2317568, 12.190393, 59.36132, 117.48242, 149.16092, 69.94405, 521.41235, 85.81438, 478.13687, 1025.2284, 12.484293, 25.491007, 129.51117, 308.88074, 159.20602, 1.739931, 2.5758514, 115.82488, 127.81887, 2.876553, 39.33367, 124.51374, 73.812584, 25.92907, 174.17801, 523.1903, 16.972889, 1.2210054, 201.94452, 63.246655, 76.203186, 52.127953], "tree_param": {"num_deleted": "0", "num_feature": "8", "num_nodes": "109", "size_leaf_vector": "1"}}, {"base_weights": [0.0022332761, -0.85235053, 0.3971867, -0.09458509, -1.4136436, 0.6711935, -0.13799106, 0.3296887, -0.17107897, -1.5260618, -0.7705134, 0.057597306, 0.97874844, 0.84601116, -0.5872229, -0.72086936, 0.8719722, -0.82146674, -1.6316484, -0.56896156, -1.5480424, 0.184297, -1.0438607, 1.116674, 0.6292221, 1.0993898, 0.6076135, -1.2181838, 0.5744836, -1.6067389, 0.4091776, -0.26001674, 1.1196247, -1.2923869, 0.18943353, -1.6524132, -0.85614663, -0.25164017, -1.205174, -1.1148311, -0.17357361, 0.88194454, -0.1408328, -1.2877316, 0.58860433, 1.1431816, 0.09290677, 0.46508023, 1.0807449, 1.2845833, 0.92549044, 0.76704556, 0.3442063, -1.5139066, -0.7350696, 0.847997, 0.015222946, -0.13665618, -0.17056412, -0.2080524, 0.05497926, 0.050376624, -0.1266284, 0.13085201, 0.071226366, -0.034504753, -0.16979015, -0.07620418, 0.06813707, -0.152732, -0.17039534, 0.005247035, -0.16237639, -0.059796672, 0.014194316, 0.026520718, -0.1600733, 0.012649755, -0.124112956, -0.051011812, 0.106151395, 0.024166418, -0.11462336, -0.09742228, -0.19090857, 0.089277446, -0.00700248, 0.093214, 0.12419178, -0.08661968, 0.058505353, 0.05776713, -0.08179314, 0.110363774, -0.060187425, 0.055566944, 0.12961434, 0.09757205, 0.036268465, 0.032238286, 0.090654366, 0.018396202, 0.07842555, -0.17850663, -0.13674626, 0.13643394, -0.105156265, 0.099044085, 0.039431445, -0.06461125, 0.10089292], "categories": [], "categories_nodes": [], "categories_segments": [], "categories_sizes": [], "default_left": [0, 0, 0, 0, 0, 0, 0, 0, 0, 0, 0, 0, 0, 0, 0, 0, 0, 0, 0, 0, 0, 0, 0, 0, 0, 0, 0, 0, 0, 0, 0, 0, 0, 0, 0, 0, 0, 0, 0, 0, 0, 0, 0, 0, 0, 0, 0, 0, 0, 0, 0, 0, 0, 0, 0, 0, 0, 0, 0, 0, 0, 0, 0, 0, 0, 0, 0, 0, 0, 0, 0, 0, 0, 0, 0, 0, 0, 0, 0, 0, 0, 0, 0, 0, 0, 0, 0, 0, 0, 0, 0, 0, 0, 0, 0, 0, 0, 0, 0, 0, 0, 0, 0, 0, 0, 0, 0, 0, 0, 0, 0], "id": 3, "left_children": [1, 3, 5, 7, 9, 11, 13, 15, -1, 17, 19, 21, 23, 25, 27, 29, 31, 33, 35, 37, 39, 41, 43, 45, 47, 49, 51, 53, 55, 57, 59, 61, 63, 65, 67, 69, 71, 73, 75, 77, -1, 79, 81, 83, 85, 87, 89, 91, 93, 95, 97, 99, 101, 103, 105, 107, 109, -1, -1, -1, -1, -1, -1, -1, -1, -1, -1, -1, -1, -1, -1, -1, -1, -1, -1, -1, -1, -1, -1, -1, -1, -1, -1, -1, -1, -1, -1, -1, -1, -1, -1, -1, -1, -1, -1, -1, -1, -1, -1, -1, -1, -1, -1, -1, -1, -1, -1, -1, -1, -1, -1], "loss_changes": [2324.7542, 925.8384, 690.87445, 636.5442, 89.24194, 587.92175, 705.98175, 419.6221, 0.0, 77.78003, 28.596382, 145.51544, 99.34802, 29.573395, 804.28674, 251.86308, 136.40369, 67.18502, 13.462891, 30.172493, 1.1661682, 212.15198, 43.58545, 40.243164, 43.188904, 6.5874023, 10.662537, 100.43286, 59.115158, 1.0153198, 40.027496, 68.245926, 29.736664, 36.31485, 21.844023, 3.1921387, 18.336632, 13.986244, 29.489502, 2.4028301, 0.0, 74.85501, 245.80956, 16.433517, 3.0010872, 29.04065, 18.733646, 63.181213, 6.689377, 0.24337769, 3.2676392, 9.711082, 6.9013834, 15.029114, 182.0452, 16.384125, 84.75295, 0.0, 0.0, 0.0, 0.0, 0.0, 0.0, 0.0, 0.0, 0.0, 0.0, 0.0, 0.0, 0.0, 0.0, 0.0, 0.0, 0.0, 0.0, 0.0, 0.0, 0.0, 0.0, 0.0, 0.0, 0.0, 0.0, 0.0, 0.0, 0.0, 0.0, 0.0, 0.0, 0.0, 0.0, 0.0, 0.0, 0.0, 0.0, 0.0, 0.0, 0.0, 0.0, 0.0, 0.0, 0.0, 0.0, 0.0, 0.0, 0.0, 0.0, 0.0, 0.0, 0.0, 0.0], "parents": [2147483647, 0, 0, 1, 1, 2, 2, 3, 3, 4, 4, 5, 5, 6, 6, 7, 7, 9, 9, 10, 10, 11, 11, 12, 12, 13, 13, 14, 14, 15, 15, 16, 16, 17, 17, 18, 18, 19, 19, 20, 20, 21, 21, 22, 22, 23, 23, 24, 24, 25, 25, 26, 26, 27, 27, 28, 28, 29, 29, 30, 30, 31, 31, 32, 32, 33, 33, 34, 34, 35, 35, 36, 36, 37, 37, 38, 38, 39, 39, 41, 41, 42, 42, 43, 43, 44, 44, 45, 45, 46, 46, 47, 47, 48, 48, 49, 49, 50, 50, 51, 51, 52, 52, 53, 53, 54, 54, 55, 55, 56, 56], "right_children": [2, 4, 6, 8, 10, 12, 14, 16, -1, 18, 20, 22, 24, 26, 28, 30, 32, 34, 36, 38, 40, 42, 44, 46, 48, 50, 52, 54, 56, 58, 60, 62, 64, 66, 68, 70, 72, 74, 76, 78, -1, 80, 82, 84, 86, 88, 90, 92, 94, 96, 98, 100, 102, 104, 106, 108, 110, -1, -1, -1, -1, -1, -1, -1, -1, -1, -1, -1, -1, -1, -1, -1, -1, -1, -1, -1, -1, -1, -1, -1, -1, -1, -1, -1, -1, -1, -1, -1, -1, -1, -1, -1, -1, -1, -1, -1, -1, -1, -1, -1, -1, -1, -1, -1, -1, -1, -1, -1, -1, -1, -1], "split_conditions": [-0.46105027, 0.3856963, 0.5308806, -0.67520046, 1.1344378, -0.7039159, 0.39555058, 0.28093928, -0.17107897, -1.317651, 0.5964275, 1.8557411, 0.22218145, -0.5086961, -0.097817935, -1.1035008, -0.7039159, -1.5318013, -0.3692625, -1.044711, -0.7039159, -0.50713223, 1.6804519, 1.2785248, -0.28719655, -0.51655775, 1.4569778, 0.823851, 1.765677, -0.7039159, -0.35445192, 1.8557411, 0.22218145, -0.7039159, -0.7039159, 0.88171214, -0.67520046, -0.51715106, 1.2933121, 0.8384244, -0.17357361, -0.2950957, -0.51314604, 0.39555058, -1.012615, -0.6063354, -0.28719655, 0.78250897, 1.6753374, -1.5840764, 0.18140036, 0.83957964, -0.66595376, -0.3087259, 0.83957964, 1.1793216, 1.2278323, -0.13665618, -0.17056412, -0.2080524, 0.05497926, 0.050376624, -0.1266284, 0.13085201, 0.071226366, -0.034504753, -0.16979015, -0.07620418, 0.06813707, -0.152732, -0.17039534, 0.005247035, -0.16237639, -0.059796672, 0.014194316, 0.026520718, -0.1600733, 0.012649755, -0.124112956, -0.051011812, 0.106151395, 0.024166418, -0.11462336, -0.09742228, -0.19090857, 0.089277446, -0.00700248, 0.093214, 0.12419178, -0.08661968, 0.058505353, 0.05776713, -0.08179314, 0.110363774, -0.060187425, 0.055566944, 0.12961434, 0.09757205, 0.036268465, 0.032238286, 0.090654366, 0.018396202, 0.07842555, -0.17850663, -0.13674626, 0.13643394, -0.105156265, 0.099044085, 0.039431445, -0.06461125, 0.10089292], "split_indices": [0, 2, 7, 0, 3, 7, 0, 4, 0, 0, 6, 5, 7, 5, 4, 0, 7, 0, 5, 4, 7, 2, 0, 2, 4, 5, 7, 0, 7, 7, 1, 5, 7, 7, 7, 2, 0, 5, 3, 6, 0, 5, 5, 0, 7, 2, 4, 2, 2, 3, 0, 7, 4, 2, 7, 2, 4, 0, 0, 0, 0, 0, 0, 0, 0, 0, 0, 0, 0, 0, 0, 0, 0, 0, 0, 0, 0, 0, 0, 0, 0, 0, 0, 0, 0, 0, 0, 0, 0, 0, 0, 0, 0, 0, 0, 0, 0, 0, 0, 0, 0, 0, 0, 0, 0, 0, 0, 0, 0, 0, 0], "split_type": [0, 0, 0, 0, 0, 0, 0, 0, 0, 0, 0, 0, 0, 0, 0, 0, 0, 0, 0, 0, 0, 0, 0, 0, 0, 0, 0, 0, 0, 0, 0, 0, 0, 0, 0, 0, 0, 0, 0, 0, 0, 0, 0, 0, 0, 0, 0, 0, 0, 0, 0, 0, 0, 0, 0, 0, 0, 0, 0, 0, 0, 0, 0, 0, 0, 0, 0, 0, 0, 0, 0, 0, 0, 0, 0, 0, 0, 0, 0, 0, 0, 0, 0, 0, 0, 0, 0, 0, 0, 0, 0, 0, 0, 0, 0, 0, 0, 0, 0, 0, 0, 0, 0, 0, 0, 0, 0, 0, 0, 0, 0], "sum_hessian": [6885.7334, 2176.075, 4709.658, 926.47266, 1249.6023, 3114.7017, 1594.9568, 734.463, 192.00967, 1062.5051, 187.09717, 1040.3364, 2074.3652, 499.64523, 1095.3115, 249.93608, 484.52692, 139.61493, 922.89014, 149.95694, 37.140232, 933.7596, 106.57682, 1485.8457, 588.5195, 240.46155, 259.1837, 709.7658, 385.5457, 139.8683, 110.06777, 86.96601, 397.56088, 95.05557, 44.55936, 897.7221, 25.168049, 100.984695, 48.97224, 13.324927, 23.815306, 296.2876, 637.472, 92.908554, 13.668263, 1448.2311, 37.61465, 433.10358, 155.41591, 113.356224, 127.105316, 160.26707, 98.91661, 438.94565, 270.8202, 258.57172, 126.974, 45.118526, 94.74978, 5.146631, 104.92114, 49.72376, 37.242252, 270.10135, 127.45956, 29.047474, 66.0081, 14.999384, 29.559975, 270.8865, 626.8356, 11.952134, 13.215916, 53.44098, 47.543713, 10.451439, 38.520805, 1.2303926, 12.094535, 33.642498, 262.6451, 462.3385, 175.13348, 63.458168, 29.450388, 9.1069565, 4.561307, 464.92587, 983.3052, 12.498103, 25.116547, 398.6681, 34.435486, 153.66925, 1.7466499, 2.53571, 110.82051, 116.01717, 11.088145, 39.062603, 121.20447, 73.551, 25.36561, 150.00433, 288.9413, 35.044827, 235.77534, 195.88582, 62.68588, 76.446686, 50.527313], "tree_param": {"num_deleted": "0", "num_feature": "8", "num_nodes": "111", "size_leaf_vector": "1"}}, {"base_weights": [0.0022025837, -0.79108906, 0.36756426, -0.08818559, -1.3101141, 0.6218418, -0.12635417, 0.305804, -0.15979125, -1.418201, -0.70384675, 0.052614696, 0.91377443, 0.7852742, -0.5386811, -0.66582215, 0.81282413, -0.75654167, -1.5185406, -1.3356217, -0.4827325, -0.6100355, 0.22796871, 1.0487697, 0.57857424, 1.0317715, 0.558146, -1.1156348, 0.53023386, -1.4931873, 0.371958, -0.23755312, 1.0484748, -1.1937305, 0.17287862, -1.5383712, -0.78973174, -0.71297616, -0.1574976, -1.3688827, -0.24548446, 0.53703636, -0.8826314, 1.0840558, -0.0044970443, 1.0745078, 0.08404694, 0.4245685, 1.0127832, 1.2178738, 0.86039686, 0.7083883, 0.31361282, -1.1738975, 1.0271746, 0.7858468, 0.014843888, -0.12566999, -0.159277, -0.013769135, 0.10452014, 0.0462198, -0.11497511, 0.123518825, 0.065560155, -0.031087143, -0.15857656, -0.06912417, 0.06274777, -0.14589445, -0.1623751, 0.0047666617, -0.15164886, 0.013854796, -0.109840825, -0.087772325, -0.15584388, -0.055571433, 0.0059512244, 0.06794619, -0.07432569, -0.017889803, -0.17597058, 0.132848, 0.053928018, -0.014790512, 0.095628306, 0.0866093, 0.11736311, -0.044983882, 0.0938291, 0.050582893, -0.121318184, 0.103508964, -0.056294132, 0.122464634, 0.028294137, 0.08842815, -0.012548016, 0.029299324, 0.084162906, 0.01663978, 0.07257076, -0.1396123, -0.0790408, 0.018370409, 0.11002234, 0.09232164, 0.03587943, -0.058192264, 0.09423329], "categories": [], "categories_nodes": [], "categories_segments": [], "categories_sizes": [], "default_left": [0, 0, 0, 0, 0, 0, 0, 0, 0, 0, 0, 0, 0, 0, 0, 0, 0, 0, 0, 0, 0, 0, 0, 0, 0, 0, 0, 0, 0, 0, 0, 0, 0, 0, 0, 0, 0, 0, 0, 0, 0, 0, 0, 0, 0, 0, 0, 0, 0, 0, 0, 0, 0, 0, 0, 0, 0, 0, 0, 0, 0, 0, 0, 0, 0, 0, 0, 0, 0, 0, 0, 0, 0, 0, 0, 0, 0, 0, 0, 0, 0, 0, 0, 0, 0, 0, 0, 0, 0, 0, 0, 0, 0, 0, 0, 0, 0, 0, 0, 0, 0, 0, 0, 0, 0, 0, 0, 0, 0, 0, 0], "id": 4, "left_children": [1, 3, 5, 7, 9, 11, 13, 15, -1, 17, 19, 21, 23, 25, 27, 29, 31, 33, 35, 37, 39, 41, 43, 45, 47, 49, 51, 53, 55, 57, 59, 61, 63, 65, 67, 69, 71, 73, -1, 75, 77, 79, 81, 83, 85, 87, 89, 91, 93, 95, 97, 99, 101, 103, 105, 107, 109, -1, -1, -1, -1, -1, -1, -1, -1, -1, -1, -1, -1, -1, -1, -1, -1, -1, -1, -1, -1, -1, -1, -1, -1, -1, -1, -1, -1, -1, -1, -1, -1, -1, -1, -1, -1, -1, -1, -1, -1, -1, -1, -1, -1, -1, -1, -1, -1, -1, -1, -1, -1, -1, -1], "loss_changes": [1945.1661, 771.9503, 577.16785, 535.8091, 78.77051, 504.04663, 587.72723, 352.55658, 0.0, 67.37427, 25.362175, 119.75544, 90.124146, 26.68991, 664.444, 211.40561, 116.582, 56.24048, 11.723633, 5.985817, 28.985958, 67.91411, 162.14629, 35.371582, 38.214523, 6.363083, 9.169868, 88.5249, 49.78858, 1.2208557, 37.795193, 56.023563, 27.362396, 32.011322, 18.106876, 3.5339355, 15.754448, 5.0988507, 0.0, 1.354065, 10.55801, 8.169964, 107.48018, 22.452103, 88.56285, 27.719604, 17.842836, 57.615807, 5.8755035, 0.34358215, 3.039688, 8.473671, 5.8903923, 56.963562, 0.9714546, 14.491592, 70.4795, 0.0, 0.0, 0.0, 0.0, 0.0, 0.0, 0.0, 0.0, 0.0, 0.0, 0.0, 0.0, 0.0, 0.0, 0.0, 0.0, 0.0, 0.0, 0.0, 0.0, 0.0, 0.0, 0.0, 0.0, 0.0, 0.0, 0.0, 0.0, 0.0, 0.0, 0.0, 0.0, 0.0, 0.0, 0.0, 0.0, 0.0, 0.0, 0.0, 0.0, 0.0, 0.0, 0.0, 0.0, 0.0, 0.0, 0.0, 0.0, 0.0, 0.0, 0.0, 0.0, 0.0, 0.0], "parents": [2147483647, 0, 0, 1, 1, 2, 2, 3, 3, 4, 4, 5, 5, 6, 6, 7, 7, 9, 9, 10, 10, 11, 11, 12, 12, 13, 13, 14, 14, 15, 15, 16, 16, 17, 17, 18, 18, 19, 19, 20, 20, 21, 21, 22, 22, 23, 23, 24, 24, 25, 25, 26, 26, 27, 27, 28, 28, 29, 29, 30, 30, 31, 31, 32, 32, 33, 33, 34, 34, 35, 35, 36, 36, 37, 37, 39, 39, 40, 40, 41, 41, 42, 42, 43, 43, 44, 44, 45, 45, 46, 46, 47, 47, 48, 48, 49, 49, 50, 50, 51, 51, 52, 52, 53, 53, 54, 54, 55, 55, 56, 56], "right_children": [2, 4, 6, 8, 10, 12, 14, 16, -1, 18, 20, 22, 24, 26, 28, 30, 32, 34, 36, 38, 40, 42, 44, 46, 48, 50, 52, 54, 56, 58, 60, 62, 64, 66, 68, 70, 72, 74, -1, 76, 78, 80, 82, 84, 86, 88, 90, 92, 94, 96, 98, 100, 102, 104, 106, 108, 110, -1, -1, -1, -1, -1, -1, -1, -1, -1, -1, -1, -1, -1, -1, -1, -1, -1, -1, -1, -1, -1, -1, -1, -1, -1, -1, -1, -1, -1, -1, -1, -1, -1, -1, -1, -1, -1, -1, -1, -1, -1, -1, -1, -1, -1, -1, -1, -1, -1, -1, -1, -1, -1, -1], "split_conditions": [-0.46105027, 0.3856963, 0.5308806, -0.67520046, 1.1344378, -0.7039159, 0.39555058, 0.28093928, -0.15979125, -1.317651, -0.35445192, -0.24690005, 0.22218145, -0.5086961, -0.097817935, -1.1035008, -0.7039159, -1.5318013, -0.3692625, -1.317651, -1.5318013, -0.51314604, 0.18140036, 1.2785248, -0.28719655, -0.51655775, 1.4569778, 1.2521514, 1.765677, -0.7039159, -0.80474174, 1.8557411, 0.22218145, -0.7039159, -0.7039159, -0.67520046, -0.67520046, -0.17588177, -0.1574976, -0.7039159, -0.51715106, 0.58410263, -0.50713223, -1.012615, 1.6804519, -0.6063354, 0.99321634, -0.47657514, 1.6753374, 1.3689134, 1.5934078, 0.83957964, -0.66595376, 0.823851, 0.83957964, 1.1793216, 1.2278323, -0.12566999, -0.159277, -0.013769135, 0.10452014, 0.0462198, -0.11497511, 0.123518825, 0.065560155, -0.031087143, -0.15857656, -0.06912417, 0.06274777, -0.14589445, -0.1623751, 0.0047666617, -0.15164886, 0.013854796, -0.109840825, -0.087772325, -0.15584388, -0.055571433, 0.0059512244, 0.06794619, -0.07432569, -0.017889803, -0.17597058, 0.132848, 0.053928018, -0.014790512, 0.095628306, 0.0866093, 0.11736311, -0.044983882, 0.0938291, 0.050582893, -0.121318184, 0.103508964, -0.056294132, 0.122464634, 0.028294137, 0.08842815, -0.012548016, 0.029299324, 0.084162906, 0.01663978, 0.07257076, -0.1396123, -0.0790408, 0.018370409, 0.11002234, 0.09232164, 0.03587943, -0.058192264, 0.09423329], "split_indices": [0, 2, 7, 0, 3, 7, 0, 4, 0, 0, 1, 0, 7, 5, 4, 0, 7, 0, 5, 0, 0, 5, 0, 2, 4, 5, 7, 0, 7, 7, 2, 5, 7, 7, 7, 0, 0, 6, 0, 7, 5, 2, 2, 7, 0, 2, 3, 4, 2, 6, 3, 7, 4, 0, 7, 2, 4, 0, 0, 0, 0, 0, 0, 0, 0, 0, 0, 0, 0, 0, 0, 0, 0, 0, 0, 0, 0, 0, 0, 0, 0, 0, 0, 0, 0, 0, 0, 0, 0, 0, 0, 0, 0, 0, 0, 0, 0, 0, 0, 0, 0, 0, 0, 0, 0, 0, 0, 0, 0, 0, 0], "split_type": [0, 0, 0, 0, 0, 0, 0, 0, 0, 0, 0, 0, 0, 0, 0, 0, 0, 0, 0, 0, 0, 0, 0, 0, 0, 0, 0, 0, 0, 0, 0, 0, 0, 0, 0, 0, 0, 0, 0, 0, 0, 0, 0, 0, 0, 0, 0, 0, 0, 0, 0, 0, 0, 0, 0, 0, 0, 0, 0, 0, 0, 0, 0, 0, 0, 0, 0, 0, 0, 0, 0, 0, 0, 0, 0, 0, 0, 0, 0, 0, 0, 0, 0, 0, 0, 0, 0, 0, 0, 0, 0, 0, 0, 0, 0, 0, 0, 0, 0, 0, 0, 0, 0, 0, 0, 0, 0, 0, 0, 0, 0], "sum_hessian": [6709.207, 2115.267, 4593.9395, 898.9755, 1216.2916, 3032.499, 1561.4408, 713.5576, 185.41791, 1031.1216, 185.17006, 1028.4153, 2004.0836, 486.00668, 1075.4341, 244.56781, 468.98984, 136.90219, 894.21936, 46.69918, 138.47089, 214.6792, 813.73615, 1427.1842, 576.8993, 231.36671, 254.63997, 698.4159, 377.01822, 135.8351, 108.73271, 85.935844, 383.054, 92.91271, 43.98947, 869.4511, 24.768238, 14.0719, 32.62728, 28.236036, 110.23485, 41.035114, 173.64407, 172.99498, 640.74115, 1389.9866, 37.19765, 427.31613, 149.58318, 107.98991, 123.3768, 156.55493, 98.08502, 680.36896, 18.046951, 251.67342, 125.344795, 44.28572, 91.54937, 62.33797, 46.394737, 48.910046, 37.0258, 258.20016, 124.85383, 29.122377, 63.790337, 14.9849415, 29.004532, 459.79913, 409.65195, 11.942278, 12.82596, 4.584354, 9.487546, 9.4306555, 18.80538, 54.24107, 55.993774, 37.349483, 3.6856296, 97.01037, 76.633705, 118.42345, 54.571537, 558.26013, 82.48103, 451.14783, 938.8388, 23.18247, 14.015181, 407.7747, 19.54145, 147.83351, 1.7496722, 106.905624, 1.0842814, 120.5591, 2.8177018, 38.79754, 117.7574, 73.30252, 24.782501, 429.08258, 251.28636, 1.7185266, 16.328424, 189.54184, 62.131577, 76.49733, 48.84746], "tree_param": {"num_deleted": "0", "num_feature": "8", "num_nodes": "111", "size_leaf_vector": "1"}}, {"base_weights": [0.0020961196, -0.73938817, 0.3404824, -0.0825542, -1.2241403, 0.5758805, -0.11614294, 0.28499871, -0.15084487, -1.3299206, -0.64570385, 0.047976695, 0.85453594, 0.7297807, -0.49643412, -0.617725, 0.75984585, -0.70053136, -1.4269205, -0.46726868, -1.3573269, 0.16537851, -0.9685155, 0.98760295, 0.53171647, 0.9705664, 0.5129513, -1.0282942, 0.490028, -1.4006256, 0.3410645, -0.21773642, 0.98481995, -1.1105845, 0.15792568, -1.446226, -0.7321508, -0.1968404, -1.0359228, -0.9464713, -0.15424514, 0.81125677, -0.12981164, -1.1752349, 0.47052875, 1.0128224, 0.07779386, 0.3869926, 0.9514249, 1.1590444, 0.8007556, 0.6547606, 0.2857539, -1.2979928, -0.60439277, 0.72910106, 0.014464104, -0.11917611, -0.15195216, -0.0109716365, 0.10039759, 0.042390984, -0.10508188, 0.11711856, 0.0603693, -0.028029615, -0.14965607, -0.06285281, 0.057810195, -0.1309026, -0.15039468, 0.0043300367, -0.1429494, -0.08471798, -0.003284145, 0.024160335, -0.13989682, -0.047354028, -0.13628642, -0.04806698, 0.098416656, 0.019464789, -0.098665856, -0.1610484, -0.07887067, 0.0773578, -0.014431785, 0.10743793, 0.066647336, -0.107901864, 0.04077978, -0.016437849, 0.06254547, 0.07028881, 0.113346234, 0.044921815, 0.11714212, 0.08509986, 0.02592278, 0.026623523, 0.078235604, 0.015048263, 0.067208186, -0.15688017, -0.11537389, 0.13073191, -0.08969386, 0.08021468, -0.00073137734, 0.09254918, -0.050869465], "categories": [], "categories_nodes": [], "categories_segments": [], "categories_sizes": [], "default_left": [0, 0, 0, 0, 0, 0, 0, 0, 0, 0, 0, 0, 0, 0, 0, 0, 0, 0, 0, 0, 0, 0, 0, 0, 0, 0, 0, 0, 0, 0, 0, 0, 0, 0, 0, 0, 0, 0, 0, 0, 0, 0, 0, 0, 0, 0, 0, 0, 0, 0, 0, 0, 0, 0, 0, 0, 0, 0, 0, 0, 0, 0, 0, 0, 0, 0, 0, 0, 0, 0, 0, 0, 0, 0, 0, 0, 0, 0, 0, 0, 0, 0, 0, 0, 0, 0, 0, 0, 0, 0, 0, 0, 0, 0, 0, 0, 0, 0, 0, 0, 0, 0, 0, 0, 0, 0, 0, 0, 0, 0, 0], "id": 5, "left_children": [1, 3, 5, 7, 9, 11, 13, 15, -1, 17, 19, 21, 23, 25, 27, 29, 31, 33, 35, 37, 39, 41, 43, 45, 47, 49, 51, 53, 55, 57, 59, 61, 63, 65, 67, 69, 71, 73, 75, 77, -1, 79, 81, 83, 85, 87, 89, 91, 93, 95, 97, 99, 101, 103, 105, 107, 109, -1, -1, -1, -1, -1, -1, -1, -1, -1, -1, -1, -1, -1, -1, -1, -1, -1, -1, -1, -1, -1, -1, -1, -1, -1, -1, -1, -1, -1, -1, -1, -1, -1, -1, -1, -1, -1, -1, -1, -1, -1, -1, -1, -1, -1, -1, -1, -1, -1, -1, -1, -1, -1, -1], "loss_changes": [1636.5767, 650.6848, 481.4762, 455.85544, 71.09363, 434.70697, 490.72586, 296.98392, 0.0, 59.635254, 22.697319, 122.13657, 82.56531, 24.20465, 552.52905, 179.87283, 100.00589, 47.55356, 10.470703, 22.622108, 1.3019333, 174.96338, 32.077797, 31.322021, 34.05771, 6.211258, 7.9022827, 77.40454, 41.970337, 1.461029, 32.452854, 46.25838, 25.505188, 28.810394, 15.029734, 4.6466064, 13.724135, 10.832738, 22.41668, 2.0854225, 0.0, 64.76839, 175.42703, 14.367081, 2.7249238, 27.672363, 14.944715, 55.73551, 5.746994, 0.38293457, 3.0600967, 7.4168625, 5.03401, 14.484558, 150.94579, 13.222366, 59.830856, 0.0, 0.0, 0.0, 0.0, 0.0, 0.0, 0.0, 0.0, 0.0, 0.0, 0.0, 0.0, 0.0, 0.0, 0.0, 0.0, 0.0, 0.0, 0.0, 0.0, 0.0, 0.0, 0.0, 0.0, 0.0, 0.0, 0.0, 0.0, 0.0, 0.0, 0.0, 0.0, 0.0, 0.0, 0.0, 0.0, 0.0, 0.0, 0.0, 0.0, 0.0, 0.0, 0.0, 0.0, 0.0, 0.0, 0.0, 0.0, 0.0, 0.0, 0.0, 0.0, 0.0, 0.0], "parents": [2147483647, 0, 0, 1, 1, 2, 2, 3, 3, 4, 4, 5, 5, 6, 6, 7, 7, 9, 9, 10, 10, 11, 11, 12, 12, 13, 13, 14, 14, 15, 15, 16, 16, 17, 17, 18, 18, 19, 19, 20, 20, 21, 21, 22, 22, 23, 23, 24, 24, 25, 25, 26, 26, 27, 27, 28, 28, 29, 29, 30, 30, 31, 31, 32, 32, 33, 33, 34, 34, 35, 35, 36, 36, 37, 37, 38, 38, 39, 39, 41, 41, 42, 42, 43, 43, 44, 44, 45, 45, 46, 46, 47, 47, 48, 48, 49, 49, 50, 50, 51, 51, 52, 52, 53, 53, 54, 54, 55, 55, 56, 56], "right_children": [2, 4, 6, 8, 10, 12, 14, 16, -1, 18, 20, 22, 24, 26, 28, 30, 32, 34, 36, 38, 40, 42, 44, 46, 48, 50, 52, 54, 56, 58, 60, 62, 64, 66, 68, 70, 72, 74, 76, 78, -1, 80, 82, 84, 86, 88, 90, 92, 94, 96, 98, 100, 102, 104, 106, 108, 110, -1, -1, -1, -1, -1, -1, -1, -1, -1, -1, -1, -1, -1, -1, -1, -1, -1, -1, -1, -1, -1, -1, -1, -1, -1, -1, -1, -1, -1, -1, -1, -1, -1, -1, -1, -1, -1, -1, -1, -1, -1, -1, -1, -1, -1, -1, -1, -1, -1, -1, -1, -1, -1, -1], "split_conditions": [-0.46105027, 0.3856963, 0.5308806, -0.67520046, 1.1344378, -0.7039159, 0.39555058, 0.28093928, -0.15084487, -1.317651, 0.5964275, 1.8557411, 0.22218145, -0.5086961, -0.097817935, -1.1035008, -0.7039159, -1.5318013, -0.3692625, -1.044711, -0.7039159, -0.50713223, 1.6804519, 1.2785248, -0.28719655, -0.51655775, 1.4569778, 0.823851, 1.765677, -1.5318013, -0.6063354, 1.8557411, 0.22218145, -0.7039159, -0.7039159, 0.88171214, -0.67520046, -0.24488926, 1.2933121, 0.9809153, -0.15424514, -0.2950957, -0.51314604, -0.24690005, -1.012615, -0.018185925, -0.24690005, -0.14388445, 0.3753722, -1.5840764, 0.18140036, 0.83957964, -0.66595376, -0.3087259, 0.83957964, 1.6816713, 1.4663016, -0.11917611, -0.15195216, -0.0109716365, 0.10039759, 0.042390984, -0.10508188, 0.11711856, 0.0603693, -0.028029615, -0.14965607, -0.06285281, 0.057810195, -0.1309026, -0.15039468, 0.0043300367, -0.1429494, -0.08471798, -0.003284145, 0.024160335, -0.13989682, -0.047354028, -0.13628642, -0.04806698, 0.098416656, 0.019464789, -0.098665856, -0.1610484, -0.07887067, 0.0773578, -0.014431785, 0.10743793, 0.066647336, -0.107901864, 0.04077978, -0.016437849, 0.06254547, 0.07028881, 0.113346234, 0.044921815, 0.11714212, 0.08509986, 0.02592278, 0.026623523, 0.078235604, 0.015048263, 0.067208186, -0.15688017, -0.11537389, 0.13073191, -0.08969386, 0.08021468, -0.00073137734, 0.09254918, -0.050869465], "split_indices": [0, 2, 7, 0, 3, 7, 0, 4, 0, 0, 6, 5, 7, 5, 4, 0, 7, 0, 5, 4, 7, 2, 0, 2, 4, 5, 7, 0, 7, 0, 2, 5, 7, 7, 7, 2, 0, 6, 3, 2, 0, 5, 5, 0, 7, 6, 0, 5, 3, 3, 0, 7, 4, 2, 7, 3, 0, 0, 0, 0, 0, 0, 0, 0, 0, 0, 0, 0, 0, 0, 0, 0, 0, 0, 0, 0, 0, 0, 0, 0, 0, 0, 0, 0, 0, 0, 0, 0, 0, 0, 0, 0, 0, 0, 0, 0, 0, 0, 0, 0, 0, 0, 0, 0, 0, 0, 0, 0, 0, 0, 0], "split_type": [0, 0, 0, 0, 0, 0, 0, 0, 0, 0, 0, 0, 0, 0, 0, 0, 0, 0, 0, 0, 0, 0, 0, 0, 0, 0, 0, 0, 0, 0, 0, 0, 0, 0, 0, 0, 0, 0, 0, 0, 0, 0, 0, 0, 0, 0, 0, 0, 0, 0, 0, 0, 0, 0, 0, 0, 0, 0, 0, 0, 0, 0, 0, 0, 0, 0, 0, 0, 0, 0, 0, 0, 0, 0, 0, 0, 0, 0, 0, 0, 0, 0, 0, 0, 0, 0, 0, 0, 0, 0, 0, 0, 0, 0, 0, 0, 0, 0, 0, 0, 0, 0, 0, 0, 0, 0, 0, 0, 0, 0, 0], "sum_hessian": [6520.6104, 2042.9153, 4477.695, 867.9807, 1174.9346, 2954.3938, 1523.3011, 690.7311, 177.24966, 992.1904, 182.74408, 1021.10834, 1933.2854, 472.14282, 1051.1583, 237.99052, 452.74057, 133.5921, 858.5983, 147.43282, 35.311264, 916.13477, 104.97353, 1367.5277, 565.7577, 222.06589, 250.07693, 682.9157, 368.24265, 130.7586, 107.23191, 84.704666, 368.0359, 90.20894, 43.383167, 834.33325, 24.265093, 100.82892, 46.603897, 12.867172, 22.444092, 286.8207, 629.3141, 91.948425, 13.025112, 1330.5326, 36.995003, 422.12323, 143.63448, 102.48698, 119.57891, 152.81367, 97.26325, 416.1113, 266.80444, 244.69678, 123.54586, 51.43188, 79.32673, 64.32518, 42.906734, 48.12759, 36.577076, 245.78003, 122.25587, 29.175215, 61.033726, 14.934342, 28.448824, 254.07811, 580.2551, 11.933193, 12.3319, 19.466919, 81.362, 10.387096, 36.2168, 7.02526, 5.8419123, 33.646313, 253.1744, 457.02625, 172.28786, 41.759136, 50.189285, 8.551857, 4.4732547, 1127.9579, 202.5748, 7.7073956, 29.287607, 127.5389, 294.58432, 62.780743, 80.85374, 2.3955152, 100.09146, 108.90339, 10.675526, 38.541656, 114.272026, 73.068214, 24.19504, 141.18628, 274.92502, 34.94952, 231.85492, 222.53413, 22.16265, 44.7862, 78.75966], "tree_param": {"num_deleted": "0", "num_feature": "8", "num_nodes": "111", "size_leaf_vector": "1"}}, {"base_weights": [0.0018293903, -0.69486254, 0.316094, -0.077710055, -1.1512086, 0.060168333, 0.68777627, 0.26622644, -0.14360319, -1.2561413, -0.5942593, 0.3859088, -0.4824974, 0.30988523, 0.8624774, -0.14436685, 0.486213, -0.6512431, -1.3512487, -1.179347, -0.3999122, -0.56448627, 0.58284414, 0.57917637, -1.0081407, 0.97479737, -0.019263085, 0.9615942, 0.1897955, -1.1143997, 0.63467187, -1.038823, 0.14434624, -1.3703411, -0.6813548, -0.59977895, -0.14132747, -1.2043146, -0.19861723, -0.15354264, -0.8678629, 0.6387787, -0.60242844, 0.6807242, 0.34728023, -0.67094237, -1.2621403, 1.2065694, 0.45182058, 0.5806603, -0.40308186, 1.0327721, 0.482201, 0.8491746, -0.4573401, -0.037589807, -0.14220555, 0.078341685, -0.057563193, -0.025287911, -0.1424073, -0.057251245, 0.053266466, -0.12298951, -0.14302173, 0.003933187, -0.13574313, 0.016779255, -0.09137767, -0.07412013, -0.13935369, -0.012918079, -0.13068965, 0.05148665, -0.12318269, -0.040436335, -0.12851554, 0.066832, -0.08052131, -0.08589472, 0.04695627, 0.073266104, 0.016265815, -0.08152393, 0.04180202, -0.10706508, 0.039950535, -0.14476241, -0.08004839, 0.13581151, 0.08942342, -0.005170384, 0.06647527, 0.09269255, -0.10203749, -0.06491975, 0.10183469, 0.10824313, 0.07141314, 0.08403882, -0.054614972, 0.003893811, 0.095931925, -0.09162341, 0.11532066], "categories": [], "categories_nodes": [], "categories_segments": [], "categories_sizes": [], "default_left": [0, 0, 0, 0, 0, 0, 0, 0, 0, 0, 0, 0, 0, 0, 0, 0, 0, 0, 0, 0, 0, 0, 0, 0, 0, 0, 0, 0, 0, 0, 0, 0, 0, 0, 0, 0, 0, 0, 0, 0, 0, 0, 0, 0, 0, 0, 0, 0, 0, 0, 0, 0, 0, 0, 0, 0, 0, 0, 0, 0, 0, 0, 0, 0, 0, 0, 0, 0, 0, 0, 0, 0, 0, 0, 0, 0, 0, 0, 0, 0, 0, 0, 0, 0, 0, 0, 0, 0, 0, 0, 0, 0, 0, 0, 0, 0, 0, 0, 0, 0, 0, 0, 0, 0, 0], "id": 6, "left_children": [1, 3, 5, 7, 9, 11, 13, 15, -1, 17, 19, 21, 23, 25, 27, -1, 29, 31, 33, 35, 37, 39, 41, 43, 45, 47, 49, 51, 53, 55, 57, 59, 61, 63, 65, 67, -1, 69, 71, 73, 75, 77, 79, 81, 83, 85, 87, 89, 91, 93, 95, 97, 99, 101, 103, -1, -1, -1, -1, -1, -1, -1, -1, -1, -1, -1, -1, -1, -1, -1, -1, -1, -1, -1, -1, -1, -1, -1, -1, -1, -1, -1, -1, -1, -1, -1, -1, -1, -1, -1, -1, -1, -1, -1, -1, -1, -1, -1, -1, -1, -1, -1, -1, -1, -1], "loss_changes": [1383.522, 553.1331, 414.1904, 390.99298, 65.24707, 456.2543, 116.95825, 251.9801, 0.0, 53.733276, 20.100777, 302.1939, 540.9101, 123.21925, 80.74164, 0.0, 141.52881, 40.515903, 9.546143, 5.198826, 21.996231, 34.4432, 88.98996, 7.3288727, 54.649536, 22.05043, 87.16201, 35.589905, 67.43117, 10.9764595, 98.197525, 26.329529, 12.486525, 4.932129, 12.085614, 3.6629624, 0.0, 1.3584023, 8.375765, 86.404625, 30.298737, 55.00006, 17.10661, 5.8644257, 8.554549, 120.45292, 30.39038, 4.8711853, 6.343403, 82.8297, 81.40845, 13.784729, 51.51253, 6.93898, 60.141113, 0.0, 0.0, 0.0, 0.0, 0.0, 0.0, 0.0, 0.0, 0.0, 0.0, 0.0, 0.0, 0.0, 0.0, 0.0, 0.0, 0.0, 0.0, 0.0, 0.0, 0.0, 0.0, 0.0, 0.0, 0.0, 0.0, 0.0, 0.0, 0.0, 0.0, 0.0, 0.0, 0.0, 0.0, 0.0, 0.0, 0.0, 0.0, 0.0, 0.0, 0.0, 0.0, 0.0, 0.0, 0.0, 0.0, 0.0, 0.0, 0.0, 0.0], "parents": [2147483647, 0, 0, 1, 1, 2, 2, 3, 3, 4, 4, 5, 5, 6, 6, 7, 7, 9, 9, 10, 10, 11, 11, 12, 12, 13, 13, 14, 14, 16, 16, 17, 17, 18, 18, 19, 19, 20, 20, 21, 21, 22, 22, 23, 23, 24, 24, 25, 25, 26, 26, 27, 27, 28, 28, 29, 29, 30, 30, 31, 31, 32, 32, 33, 33, 34, 34, 35, 35, 37, 37, 38, 38, 39, 39, 40, 40, 41, 41, 42, 42, 43, 43, 44, 44, 45, 45, 46, 46, 47, 47, 48, 48, 49, 49, 50, 50, 51, 51, 52, 52, 53, 53, 54, 54], "right_children": [2, 4, 6, 8, 10, 12, 14, 16, -1, 18, 20, 22, 24, 26, 28, -1, 30, 32, 34, 36, 38, 40, 42, 44, 46, 48, 50, 52, 54, 56, 58, 60, 62, 64, 66, 68, -1, 70, 72, 74, 76, 78, 80, 82, 84, 86, 88, 90, 92, 94, 96, 98, 100, 102, 104, -1, -1, -1, -1, -1, -1, -1, -1, -1, -1, -1, -1, -1, -1, -1, -1, -1, -1, -1, -1, -1, -1, -1, -1, -1, -1, -1, -1, -1, -1, -1, -1, -1, -1, -1, -1, -1, -1, -1, -1, -1, -1, -1, -1, -1, -1, -1, -1, -1, -1], "split_conditions": [-0.46105027, 0.3856963, -0.097817935, -0.67520046, 1.1344378, 0.5308806, -0.7039159, -1.2340896, -0.14360319, -1.317651, -0.35445192, -1.012615, -0.66595376, 1.0384537, 1.765677, -0.14436685, -1.5318013, -1.5318013, -0.3692625, -1.317651, -1.5318013, -0.50713223, 1.1793216, -0.8553324, 1.1482787, -1.012615, -0.50713223, 1.1793216, 1.4663016, -0.7039159, 1.8557411, -0.7039159, -0.7039159, 0.88171214, -0.67520046, -0.19112931, -0.14132747, -0.7039159, 0.5964275, 1.8557411, -0.51314604, 1.8557411, 0.823851, 1.8557411, -0.807358, 0.823851, 0.6833058, 0.26945606, 0.8490751, 3.339077, 1.6804519, 1.4172109, 1.2278323, -0.2513932, 1.6804519, -0.037589807, -0.14220555, 0.078341685, -0.057563193, -0.025287911, -0.1424073, -0.057251245, 0.053266466, -0.12298951, -0.14302173, 0.003933187, -0.13574313, 0.016779255, -0.09137767, -0.07412013, -0.13935369, -0.012918079, -0.13068965, 0.05148665, -0.12318269, -0.040436335, -0.12851554, 0.066832, -0.08052131, -0.08589472, 0.04695627, 0.073266104, 0.016265815, -0.08152393, 0.04180202, -0.10706508, 0.039950535, -0.14476241, -0.08004839, 0.13581151, 0.08942342, -0.005170384, 0.06647527, 0.09269255, -0.10203749, -0.06491975, 0.10183469, 0.10824313, 0.07141314, 0.08403882, -0.054614972, 0.003893811, 0.095931925, -0.09162341, 0.11532066], "split_indices": [0, 2, 4, 0, 3, 7, 7, 4, 0, 0, 1, 7, 4, 4, 7, 0, 0, 0, 5, 0, 0, 2, 2, 4, 7, 7, 2, 2, 0, 7, 5, 7, 7, 2, 0, 6, 0, 7, 6, 5, 5, 5, 0, 5, 3, 0, 2, 3, 4, 5, 0, 4, 4, 6, 0, 0, 0, 0, 0, 0, 0, 0, 0, 0, 0, 0, 0, 0, 0, 0, 0, 0, 0, 0, 0, 0, 0, 0, 0, 0, 0, 0, 0, 0, 0, 0, 0, 0, 0, 0, 0, 0, 0, 0, 0, 0, 0, 0, 0, 0, 0, 0, 0, 0, 0], "split_type": [0, 0, 0, 0, 0, 0, 0, 0, 0, 0, 0, 0, 0, 0, 0, 0, 0, 0, 0, 0, 0, 0, 0, 0, 0, 0, 0, 0, 0, 0, 0, 0, 0, 0, 0, 0, 0, 0, 0, 0, 0, 0, 0, 0, 0, 0, 0, 0, 0, 0, 0, 0, 0, 0, 0, 0, 0, 0, 0, 0, 0, 0, 0, 0, 0, 0, 0, 0, 0, 0, 0, 0, 0, 0, 0, 0, 0, 0, 0, 0, 0, 0, 0, 0, 0, 0, 0, 0, 0, 0, 0, 0, 0, 0, 0, 0, 0, 0, 0, 0, 0, 0, 0, 0, 0], "sum_hessian": [6317.0176, 1963.3232, 4353.6943, 835.10956, 1128.2136, 2579.035, 1774.6593, 667.0196, 168.09, 948.2938, 179.91985, 1611.8156, 967.21936, 561.9326, 1212.7267, 75.39927, 591.6203, 129.90765, 818.38617, 43.598137, 136.3217, 276.3423, 1335.4733, 320.26297, 646.9564, 185.4148, 376.51782, 1056.6102, 156.11647, 49.6637, 541.9566, 87.14722, 42.760433, 794.69147, 23.694693, 13.561863, 30.036274, 26.288082, 110.03362, 118.00408, 158.3382, 1275.731, 59.742336, 221.3833, 98.87967, 279.51984, 367.43655, 127.57098, 57.84382, 146.70284, 229.81497, 919.00653, 137.60368, 77.172104, 78.944374, 15.258586, 34.405113, 482.95477, 59.001854, 29.210869, 57.936348, 14.857773, 27.90266, 243.97154, 550.72, 11.924832, 11.769859, 4.072416, 9.489448, 9.051653, 17.23643, 104.596924, 5.436698, 73.16989, 44.834194, 75.94868, 82.38951, 1250.6816, 25.049334, 48.367195, 11.37514, 200.8351, 20.5482, 5.0680695, 93.8116, 203.52339, 75.99646, 260.598, 106.838554, 83.64028, 43.930695, 17.416319, 40.427498, 120.96261, 25.740236, 196.3593, 33.45567, 793.0197, 125.98681, 102.1918, 35.411873, 9.397383, 67.77472, 61.774136, 17.170237], "tree_param": {"num_deleted": "0", "num_feature": "8", "num_nodes": "105", "size_leaf_vector": "1"}}, {"base_weights": [0.0013349573, -0.65535474, 0.29349765, -0.07392022, -1.0876774, 0.05528545, 0.6423606, 0.24774002, -0.1376414, -1.1930072, -0.5476498, 0.35594556, -0.44800794, 0.2845658, 0.81244606, -0.5572566, 0.6709388, -0.6071526, -1.2872835, -1.1132003, -0.3658876, -0.51708907, 0.5387268, 0.5334294, -0.93888205, 0.9049, -0.01670872, 0.9082543, 0.1764797, -1.2587086, 0.25508898, -0.22387862, 0.8847686, -0.97562057, 0.1319633, -1.306394, -0.63589716, -0.55448616, -0.13468826, -1.1395454, -0.18004712, -0.14177068, -0.7917439, 0.59093493, -0.54659534, 0.75378823, 0.4262321, -0.44218117, -1.1050618, 1.1282222, 0.4126911, 0.5381999, -0.36094606, 0.97934824, 0.44370016, 0.7905612, -0.4174974, -0.10022371, -0.13751318, -0.18948339, 0.039002042, 0.03226344, -0.091953024, 0.10783356, 0.050592303, -0.022824947, -0.13641395, -0.05221486, 0.04907167, -0.11609894, -0.1369335, 0.0035725606, -0.12966433, 0.011124276, -0.08751508, -0.068754666, -0.13311845, -0.045673545, 0.00905514, -0.06593689, 0.114680886, -0.03618625, -0.11926218, 0.06254187, -0.052023333, -0.07786947, 0.04328139, 0.049715903, 0.09214192, 0.055021744, 0.02258595, -0.088165104, 0.120507576, -0.12883747, -0.06549724, 0.12771429, 0.082677655, 0.048693065, -0.08870168, 0.086436145, -0.09232485, -0.057997465, 0.093812004, 0.08534456, 0.11133031, 0.07828539, -0.048482392, 0.0035471786, 0.089663826, -0.08325983, 0.10932962], "categories": [], "categories_nodes": [], "categories_segments": [], "categories_sizes": [], "default_left": [0, 0, 0, 0, 0, 0, 0, 0, 0, 0, 0, 0, 0, 0, 0, 0, 0, 0, 0, 0, 0, 0, 0, 0, 0, 0, 0, 0, 0, 0, 0, 0, 0, 0, 0, 0, 0, 0, 0, 0, 0, 0, 0, 0, 0, 0, 0, 0, 0, 0, 0, 0, 0, 0, 0, 0, 0, 0, 0, 0, 0, 0, 0, 0, 0, 0, 0, 0, 0, 0, 0, 0, 0, 0, 0, 0, 0, 0, 0, 0, 0, 0, 0, 0, 0, 0, 0, 0, 0, 0, 0, 0, 0, 0, 0, 0, 0, 0, 0, 0, 0, 0, 0, 0, 0, 0, 0, 0, 0, 0, 0], "id": 7, "left_children": [1, 3, 5, 7, 9, 11, 13, 15, -1, 17, 19, 21, 23, 25, 27, 29, 31, 33, 35, 37, 39, 41, 43, 45, 47, 49, 51, 53, 55, 57, 59, 61, 63, 65, 67, 69, 71, 73, -1, 75, 77, 79, 81, 83, 85, 87, 89, 91, 93, 95, 97, 99, 101, 103, 105, 107, 109, -1, -1, -1, -1, -1, -1, -1, -1, -1, -1, -1, -1, -1, -1, -1, -1, -1, -1, -1, -1, -1, -1, -1, -1, -1, -1, -1, -1, -1, -1, -1, -1, -1, -1, -1, -1, -1, -1, -1, -1, -1, -1, -1, -1, -1, -1, -1, -1, -1, -1, -1, -1, -1, -1], "loss_changes": [1173.1215, 473.17212, 351.63675, 337.17136, 60.763794, 380.84494, 104.2569, 220.3095, 0.0, 49.07483, 17.898125, 251.68498, 453.9736, 103.69443, 70.71582, 127.38964, 81.24786, 34.720444, 8.83728, 4.844105, 19.384964, 28.055717, 74.16724, 7.106926, 51.332275, 19.470688, 71.71023, 32.945435, 56.332817, 2.1999512, 30.955662, 31.661148, 24.540924, 24.335052, 10.3788, 5.306885, 10.73437, 3.1560922, 0.0, 1.354435, 8.355907, 78.581635, 26.722374, 47.988007, 14.051807, 3.913124, 5.1885147, 116.20637, 37.91455, 4.518997, 6.046007, 69.31247, 66.457, 13.81897, 43.1987, 6.042534, 50.265923, 0.0, 0.0, 0.0, 0.0, 0.0, 0.0, 0.0, 0.0, 0.0, 0.0, 0.0, 0.0, 0.0, 0.0, 0.0, 0.0, 0.0, 0.0, 0.0, 0.0, 0.0, 0.0, 0.0, 0.0, 0.0, 0.0, 0.0, 0.0, 0.0, 0.0, 0.0, 0.0, 0.0, 0.0, 0.0, 0.0, 0.0, 0.0, 0.0, 0.0, 0.0, 0.0, 0.0, 0.0, 0.0, 0.0, 0.0, 0.0, 0.0, 0.0, 0.0, 0.0, 0.0, 0.0], "parents": [2147483647, 0, 0, 1, 1, 2, 2, 3, 3, 4, 4, 5, 5, 6, 6, 7, 7, 9, 9, 10, 10, 11, 11, 12, 12, 13, 13, 14, 14, 15, 15, 16, 16, 17, 17, 18, 18, 19, 19, 20, 20, 21, 21, 22, 22, 23, 23, 24, 24, 25, 25, 26, 26, 27, 27, 28, 28, 29, 29, 30, 30, 31, 31, 32, 32, 33, 33, 34, 34, 35, 35, 36, 36, 37, 37, 39, 39, 40, 40, 41, 41, 42, 42, 43, 43, 44, 44, 45, 45, 46, 46, 47, 47, 48, 48, 49, 49, 50, 50, 51, 51, 52, 52, 53, 53, 54, 54, 55, 55, 56, 56], "right_children": [2, 4, 6, 8, 10, 12, 14, 16, -1, 18, 20, 22, 24, 26, 28, 30, 32, 34, 36, 38, 40, 42, 44, 46, 48, 50, 52, 54, 56, 58, 60, 62, 64, 66, 68, 70, 72, 74, -1, 76, 78, 80, 82, 84, 86, 88, 90, 92, 94, 96, 98, 100, 102, 104, 106, 108, 110, -1, -1, -1, -1, -1, -1, -1, -1, -1, -1, -1, -1, -1, -1, -1, -1, -1, -1, -1, -1, -1, -1, -1, -1, -1, -1, -1, -1, -1, -1, -1, -1, -1, -1, -1, -1, -1, -1, -1, -1, -1, -1, -1, -1, -1, -1, -1, -1, -1, -1, -1, -1, -1, -1], "split_conditions": [-0.46105027, 0.3856963, -0.097817935, -0.67520046, 1.1344378, 0.5308806, -0.7039159, 0.28093928, -0.1376414, -1.317651, -0.35445192, -1.012615, -0.66595376, 1.0384537, 1.765677, -1.1035008, -0.7039159, -1.5318013, -0.3692625, -1.317651, -1.5318013, -0.50713223, 1.1793216, -0.45826265, 0.83957964, -1.012615, -0.50713223, 1.1793216, 1.4663016, -0.7039159, -0.35445192, 1.8557411, 0.22218145, -0.7039159, -0.7039159, 0.88171214, -0.67520046, -0.17588177, -0.13468826, -0.7039159, -0.51715106, -0.80474174, -0.51314604, 0.5964275, 0.823851, -0.40134618, 1.4569778, 0.823851, 0.58410263, 0.26945606, 2.7309093, 3.339077, 1.6804519, 1.4663016, 1.2278323, -0.2513932, 1.6804519, -0.10022371, -0.13751318, -0.18948339, 0.039002042, 0.03226344, -0.091953024, 0.10783356, 0.050592303, -0.022824947, -0.13641395, -0.05221486, 0.04907167, -0.11609894, -0.1369335, 0.0035725606, -0.12966433, 0.011124276, -0.08751508, -0.068754666, -0.13311845, -0.045673545, 0.00905514, -0.06593689, 0.114680886, -0.03618625, -0.11926218, 0.06254187, -0.052023333, -0.07786947, 0.04328139, 0.049715903, 0.09214192, 0.055021744, 0.02258595, -0.088165104, 0.120507576, -0.12883747, -0.06549724, 0.12771429, 0.082677655, 0.048693065, -0.08870168, 0.086436145, -0.09232485, -0.057997465, 0.093812004, 0.08534456, 0.11133031, 0.07828539, -0.048482392, 0.0035471786, 0.089663826, -0.08325983, 0.10932962], "split_indices": [0, 2, 4, 0, 3, 7, 7, 4, 0, 0, 1, 7, 4, 4, 7, 0, 7, 0, 5, 0, 0, 2, 2, 5, 7, 7, 2, 2, 0, 7, 1, 5, 7, 7, 7, 2, 0, 6, 0, 7, 5, 2, 5, 6, 0, 3, 7, 0, 2, 3, 5, 5, 0, 0, 4, 6, 0, 0, 0, 0, 0, 0, 0, 0, 0, 0, 0, 0, 0, 0, 0, 0, 0, 0, 0, 0, 0, 0, 0, 0, 0, 0, 0, 0, 0, 0, 0, 0, 0, 0, 0, 0, 0, 0, 0, 0, 0, 0, 0, 0, 0, 0, 0, 0, 0, 0, 0, 0, 0, 0, 0], "split_type": [0, 0, 0, 0, 0, 0, 0, 0, 0, 0, 0, 0, 0, 0, 0, 0, 0, 0, 0, 0, 0, 0, 0, 0, 0, 0, 0, 0, 0, 0, 0, 0, 0, 0, 0, 0, 0, 0, 0, 0, 0, 0, 0, 0, 0, 0, 0, 0, 0, 0, 0, 0, 0, 0, 0, 0, 0, 0, 0, 0, 0, 0, 0, 0, 0, 0, 0, 0, 0, 0, 0, 0, 0, 0, 0, 0, 0, 0, 0, 0, 0, 0, 0, 0, 0, 0, 0, 0, 0, 0, 0, 0, 0, 0, 0, 0, 0, 0, 0, 0, 0, 0, 0, 0, 0, 0, 0, 0, 0, 0, 0], "sum_hessian": [6112.4556, 1881.7134, 4230.742, 802.9669, 1078.7465, 2514.7605, 1715.9817, 644.59045, 158.37646, 901.67065, 177.07585, 1574.4812, 940.27924, 553.7585, 1162.2233, 221.99712, 422.59335, 126.01631, 775.6543, 41.822197, 135.25366, 272.2552, 1302.2261, 313.46368, 626.81555, 180.36906, 373.3894, 1009.68604, 152.53725, 118.834915, 103.1622, 81.498436, 341.0949, 83.88001, 42.1363, 752.56976, 23.084538, 13.328272, 28.493925, 25.202648, 110.05101, 115.68572, 156.56949, 1242.8937, 59.3324, 100.611374, 212.85233, 158.05617, 468.75937, 123.18575, 57.18331, 142.73613, 230.65327, 874.71436, 134.97165, 74.83664, 77.70061, 40.101902, 78.73302, 5.321966, 97.84023, 45.94201, 35.55643, 224.52832, 116.5666, 29.23323, 54.646786, 14.763212, 27.373087, 233.22536, 519.3444, 11.91715, 11.167387, 4.5451703, 8.783101, 8.869888, 16.33276, 54.07312, 55.977894, 82.881905, 32.803814, 76.469795, 80.099686, 1205.9069, 36.986725, 48.131245, 11.201155, 41.319847, 59.291527, 130.41125, 82.44107, 125.13603, 32.920128, 331.77228, 136.9871, 80.286026, 42.899723, 54.685047, 2.4982662, 117.02697, 25.70916, 197.84862, 32.804657, 454.70938, 420.005, 98.97633, 35.995316, 9.38262, 65.45402, 61.305424, 16.395184], "tree_param": {"num_deleted": "0", "num_feature": "8", "num_nodes": "111", "size_leaf_vector": "1"}}, {"base_weights": [0.00095907075, -0.62027067, 0.27279088, -0.07041262, -1.0315351, 0.050997704, 0.60062987, 0.2314283, -0.13266471, -1.2536125, -0.77418876, 0.32807234, -0.41679296, 0.26170197, 0.76612824, -0.13345693, 0.42365173, -0.45687672, -1.3085854, -0.49594247, -0.13737687, -0.26460958, 0.56005794, 0.49197116, -0.8776475, 0.44409332, -0.6466647, 0.8587506, 0.16438335, -0.9783571, 0.55018336, -0.9560638, -0.039228726, -0.75692993, -0.13189115, -0.90710115, 0.06555498, -0.13589905, -1.2302828, 0.8127243, 0.38556066, 0.7048645, 0.39035538, -0.7161586, -1.3429635, 0.67310417, -0.1579413, -1.0212784, -0.29008406, 0.9297926, 0.40855548, 0.73653007, -0.38210818, -0.02567382, -0.13075183, -0.018981865, 0.074542455, -0.024816187, -0.12705575, -0.042935826, 0.030162558, 0.122790016, -0.1242188, -0.11411669, 0.024618587, 0.06064084, -0.012365646, 0.0043727667, -0.10441196, -0.0788206, -0.17549534, 0.049421933, 0.098219775, 0.046618845, -0.03910039, 0.045873456, 0.08692226, 0.034688182, 0.09472444, -0.10220801, -0.016012518, -0.14034075, -0.10967392, 0.07288802, 0.004932439, -0.17281266, -0.0005787965, -0.11467337, -0.0341091, 0.005081004, -0.07197352, 0.09548115, 0.025583968, 0.060094833, -0.10012623, 0.003231058, 0.083886825, -0.07588957, 0.10393695], "categories": [], "categories_nodes": [], "categories_segments": [], "categories_sizes": [], "default_left": [0, 0, 0, 0, 0, 0, 0, 0, 0, 0, 0, 0, 0, 0, 0, 0, 0, 0, 0, 0, 0, 0, 0, 0, 0, 0, 0, 0, 0, 0, 0, 0, 0, 0, 0, 0, 0, 0, 0, 0, 0, 0, 0, 0, 0, 0, 0, 0, 0, 0, 0, 0, 0, 0, 0, 0, 0, 0, 0, 0, 0, 0, 0, 0, 0, 0, 0, 0, 0, 0, 0, 0, 0, 0, 0, 0, 0, 0, 0, 0, 0, 0, 0, 0, 0, 0, 0, 0, 0, 0, 0, 0, 0, 0, 0, 0, 0, 0, 0], "id": 8, "left_children": [1, 3, 5, 7, 9, 11, 13, 15, -1, 17, 19, 21, 23, 25, 27, -1, 29, 31, 33, 35, -1, 37, 39, 41, 43, 45, 47, 49, 51, 53, 55, 57, 59, 61, -1, 63, 65, 67, 69, 71, 73, 75, 77, 79, 81, 83, 85, 87, 89, 91, 93, 95, 97, -1, -1, -1, -1, -1, -1, -1, -1, -1, -1, -1, -1, -1, -1, -1, -1, -1, -1, -1, -1, -1, -1, -1, -1, -1, -1, -1, -1, -1, -1, -1, -1, -1, -1, -1, -1, -1, -1, -1, -1, -1, -1, -1, -1, -1, -1], "loss_changes": [997.7378, 406.6092, 298.8125, 292.50656, 57.825195, 318.01794, 92.82178, 187.85132, 0.0, 23.518677, 79.25818, 211.99931, 382.693, 90.685104, 61.93463, 0.0, 98.97785, 7.69219, 1.9326782, 75.978836, 0.0, 53.790627, 48.52408, 6.382759, 44.57315, 62.83545, 11.945511, 30.4823, 47.120834, 10.660652, 73.76961, 3.4352102, 2.9525168, 12.8917265, 0.0, 51.54503, 14.396086, 62.722282, 10.4303055, 23.890533, 41.32483, 3.5735664, 4.7692375, 76.7218, 0.7673645, 11.438156, 30.137552, 3.3886833, 7.117981, 13.795715, 36.758728, 5.2717514, 42.17833, 0.0, 0.0, 0.0, 0.0, 0.0, 0.0, 0.0, 0.0, 0.0, 0.0, 0.0, 0.0, 0.0, 0.0, 0.0, 0.0, 0.0, 0.0, 0.0, 0.0, 0.0, 0.0, 0.0, 0.0, 0.0, 0.0, 0.0, 0.0, 0.0, 0.0, 0.0, 0.0, 0.0, 0.0, 0.0, 0.0, 0.0, 0.0, 0.0, 0.0, 0.0, 0.0, 0.0, 0.0, 0.0, 0.0], "parents": [2147483647, 0, 0, 1, 1, 2, 2, 3, 3, 4, 4, 5, 5, 6, 6, 7, 7, 9, 9, 10, 10, 11, 11, 12, 12, 13, 13, 14, 14, 16, 16, 17, 17, 18, 18, 19, 19, 21, 21, 22, 22, 23, 23, 24, 24, 25, 25, 26, 26, 27, 27, 28, 28, 29, 29, 30, 30, 31, 31, 32, 32, 33, 33, 35, 35, 36, 36, 37, 37, 38, 38, 39, 39, 40, 40, 41, 41, 42, 42, 43, 43, 44, 44, 45, 45, 46, 46, 47, 47, 48, 48, 49, 49, 50, 50, 51, 51, 52, 52], "right_children": [2, 4, 6, 8, 10, 12, 14, 16, -1, 18, 20, 22, 24, 26, 28, -1, 30, 32, 34, 36, -1, 38, 40, 42, 44, 46, 48, 50, 52, 54, 56, 58, 60, 62, -1, 64, 66, 68, 70, 72, 74, 76, 78, 80, 82, 84, 86, 88, 90, 92, 94, 96, 98, -1, -1, -1, -1, -1, -1, -1, -1, -1, -1, -1, -1, -1, -1, -1, -1, -1, -1, -1, -1, -1, -1, -1, -1, -1, -1, -1, -1, -1, -1, -1, -1, -1, -1, -1, -1, -1, -1, -1, -1, -1, -1, -1, -1, -1, -1], "split_conditions": [-0.46105027, 0.3856963, -0.097817935, -0.67520046, -0.35445192, 0.5308806, -0.7039159, -1.2340896, -0.13266471, -1.317651, -0.67520046, -0.7039159, -0.66595376, 1.4172109, 1.765677, -0.13345693, -1.5318013, -1.5318013, -1.3498175, -1.1035008, -0.13737687, 0.88171214, -0.086517654, -0.45826265, 1.765677, 1.4168808, -0.17659046, 1.1793216, 1.4663016, -0.7039159, -0.7039159, -0.7039159, 0.83957964, -0.88935065, -0.13189115, 0.28093928, 0.60485715, 1.8557411, 0.39555058, -0.9039449, 0.78250897, -0.40134618, 0.39555058, 0.823851, 0.6833058, 1.8557411, -0.8521347, -0.5086961, 0.6833058, 1.6816713, 1.6804519, -0.2513932, 1.6804519, -0.02567382, -0.13075183, -0.018981865, 0.074542455, -0.024816187, -0.12705575, -0.042935826, 0.030162558, 0.122790016, -0.1242188, -0.11411669, 0.024618587, 0.06064084, -0.012365646, 0.0043727667, -0.10441196, -0.0788206, -0.17549534, 0.049421933, 0.098219775, 0.046618845, -0.03910039, 0.045873456, 0.08692226, 0.034688182, 0.09472444, -0.10220801, -0.016012518, -0.14034075, -0.10967392, 0.07288802, 0.004932439, -0.17281266, -0.0005787965, -0.11467337, -0.0341091, 0.005081004, -0.07197352, 0.09548115, 0.025583968, 0.060094833, -0.10012623, 0.003231058, 0.083886825, -0.07588957, 0.10393695], "split_indices": [0, 2, 4, 0, 1, 7, 7, 4, 0, 0, 0, 7, 4, 4, 7, 0, 0, 0, 1, 0, 0, 2, 7, 5, 7, 3, 6, 2, 0, 7, 7, 7, 7, 0, 0, 4, 3, 5, 0, 2, 2, 3, 0, 0, 2, 5, 1, 5, 2, 3, 0, 6, 0, 0, 0, 0, 0, 0, 0, 0, 0, 0, 0, 0, 0, 0, 0, 0, 0, 0, 0, 0, 0, 0, 0, 0, 0, 0, 0, 0, 0, 0, 0, 0, 0, 0, 0, 0, 0, 0, 0, 0, 0, 0, 0, 0, 0, 0, 0], "split_type": [0, 0, 0, 0, 0, 0, 0, 0, 0, 0, 0, 0, 0, 0, 0, 0, 0, 0, 0, 0, 0, 0, 0, 0, 0, 0, 0, 0, 0, 0, 0, 0, 0, 0, 0, 0, 0, 0, 0, 0, 0, 0, 0, 0, 0, 0, 0, 0, 0, 0, 0, 0, 0, 0, 0, 0, 0, 0, 0, 0, 0, 0, 0, 0, 0, 0, 0, 0, 0, 0, 0, 0, 0, 0, 0, 0, 0, 0, 0, 0, 0, 0, 0, 0, 0, 0, 0, 0, 0, 0, 0, 0, 0, 0, 0, 0, 0, 0, 0], "sum_hessian": [5906.317, 1797.3861, 4108.9307, 769.603, 1027.7831, 2451.5425, 1657.3885, 621.168, 148.43497, 549.61816, 478.165, 1539.8064, 911.73596, 544.62335, 1112.7651, 67.26157, 553.90643, 36.075626, 513.5425, 327.8481, 150.31688, 433.12033, 1106.686, 306.7617, 604.9743, 453.97968, 90.643684, 963.96216, 148.80298, 45.294754, 508.6117, 15.846358, 20.229269, 10.801264, 502.74124, 188.9057, 138.94243, 383.1876, 49.93274, 450.58957, 656.09644, 97.19459, 209.56711, 450.99472, 153.97957, 328.7912, 125.18849, 43.29503, 47.34865, 831.6589, 132.30328, 72.52526, 76.27772, 14.746353, 30.548403, 106.18347, 402.42822, 5.4247427, 10.421616, 9.311738, 10.917532, 1.8212947, 8.979969, 157.04341, 31.862291, 35.438354, 103.50407, 320.70987, 62.477734, 28.4574, 21.47534, 157.84854, 292.74103, 594.7459, 61.35054, 40.434322, 56.760265, 195.89728, 13.66984, 290.38885, 160.60587, 119.85698, 34.12259, 301.65027, 27.140919, 10.144274, 115.04422, 35.974003, 7.3210287, 26.89296, 20.455692, 801.4887, 30.170134, 116.9212, 15.382082, 9.369141, 63.15612, 60.663834, 15.613888], "tree_param": {"num_deleted": "0", "num_feature": "8", "num_nodes": "99", "size_leaf_vector": "1"}}, {"base_weights": [0.00043660114, -0.58693707, 0.25306627, -0.9436096, -0.011993914, 0.046935886, 0.560234, -0.6876479, -1.2124453, 0.2827509, -0.12860931, 0.30237997, -0.38770816, 0.23823944, 0.7226349, -0.42859972, -0.13215819, -0.43455878, -1.2661277, -0.13249388, 0.45542264, -0.44596344, 0.46354783, 0.45322698, -0.8205087, 0.80160004, -0.026015965, 0.83882254, 0.27994803, -0.65880644, 0.43730074, -0.9096768, -0.010459507, -0.12755068, -0.29846507, 0.61181605, -0.5591324, -0.09299581, -0.7035063, 0.59978014, 0.14309064, 0.54921305, 0.2412571, -0.33839208, -0.9843106, 1.0258087, 0.32313266, 0.48006216, -0.32777822, 0.91342056, 0.34469166, 0.6494559, -0.19381091, -0.10750091, -0.009774699, -0.015156932, 0.06353282, -0.022801647, -0.12234403, 0.09065049, -0.012560588, -0.0892386, 0.07355003, -0.08619413, 0.069942914, -0.09046553, 0.058327597, -0.054988574, 0.10864836, -0.03134897, -0.10862612, 0.09352996, 0.039421532, 0.049368825, -0.034548342, 0.06518882, 0.027988026, -0.08089042, 0.030887881, -0.075095795, 0.11184044, -0.11691395, -0.055306476, 0.11722477, 0.07394778, -0.0125589585, 0.05199901, -0.010153744, 0.12834135, -0.051130485, 0.081206106, 0.076741815, 0.106244825, 0.07105928, -0.07253772, -0.053302318, 0.069305666, 0.055066433, -0.07246319], "categories": [], "categories_nodes": [], "categories_segments": [], "categories_sizes": [], "default_left": [0, 0, 0, 0, 0, 0, 0, 0, 0, 0, 0, 0, 0, 0, 0, 0, 0, 0, 0, 0, 0, 0, 0, 0, 0, 0, 0, 0, 0, 0, 0, 0, 0, 0, 0, 0, 0, 0, 0, 0, 0, 0, 0, 0, 0, 0, 0, 0, 0, 0, 0, 0, 0, 0, 0, 0, 0, 0, 0, 0, 0, 0, 0, 0, 0, 0, 0, 0, 0, 0, 0, 0, 0, 0, 0, 0, 0, 0, 0, 0, 0, 0, 0, 0, 0, 0, 0, 0, 0, 0, 0, 0, 0, 0, 0, 0, 0, 0, 0], "id": 9, "left_children": [1, 3, 5, 7, 9, 11, 13, 15, 17, 19, -1, 21, 23, 25, 27, 29, -1, 31, 33, -1, 35, 37, 39, 41, 43, 45, 47, 49, 51, 53, 55, 57, 59, -1, 61, 63, 65, 67, 69, 71, 73, 75, 77, 79, 81, 83, 85, 87, 89, 91, 93, 95, 97, -1, -1, -1, -1, -1, -1, -1, -1, -1, -1, -1, -1, -1, -1, -1, -1, -1, -1, -1, -1, -1, -1, -1, -1, -1, -1, -1, -1, -1, -1, -1, -1, -1, -1, -1, -1, -1, -1, -1, -1, -1, -1, -1, -1, -1, -1], "loss_changes": [847.86456, 352.38037, 252.94931, 72.14148, 247.81021, 265.69684, 83.72461, 89.02713, 20.994751, 149.38315, 0.0, 181.9823, 322.7916, 80.319824, 54.594604, 77.787025, 0.0, 7.0084577, 3.99469, 0.0, 77.25082, 24.25879, 54.07321, 6.004986, 45.88266, 18.147537, 56.37645, 30.791565, 39.18432, 71.70778, 9.688197, 3.2318535, 2.1637182, 0.0, 4.300012, 54.891373, 26.288, 62.047733, 22.73079, 59.649048, 63.785275, 5.537689, 7.0533214, 90.9531, 34.128296, 4.031952, 5.0493884, 64.56948, 48.78272, 15.124573, 44.483288, 6.8439445, 39.33927, 0.0, 0.0, 0.0, 0.0, 0.0, 0.0, 0.0, 0.0, 0.0, 0.0, 0.0, 0.0, 0.0, 0.0, 0.0, 0.0, 0.0, 0.0, 0.0, 0.0, 0.0, 0.0, 0.0, 0.0, 0.0, 0.0, 0.0, 0.0, 0.0, 0.0, 0.0, 0.0, 0.0, 0.0, 0.0, 0.0, 0.0, 0.0, 0.0, 0.0, 0.0, 0.0, 0.0, 0.0, 0.0, 0.0], "parents": [2147483647, 0, 0, 1, 1, 2, 2, 3, 3, 4, 4, 5, 5, 6, 6, 7, 7, 8, 8, 9, 9, 11, 11, 12, 12, 13, 13, 14, 14, 15, 15, 17, 17, 18, 18, 20, 20, 21, 21, 22, 22, 23, 23, 24, 24, 25, 25, 26, 26, 27, 27, 28, 28, 29, 29, 30, 30, 31, 31, 32, 32, 34, 34, 35, 35, 36, 36, 37, 37, 38, 38, 39, 39, 40, 40, 41, 41, 42, 42, 43, 43, 44, 44, 45, 45, 46, 46, 47, 47, 48, 48, 49, 49, 50, 50, 51, 51, 52, 52], "right_children": [2, 4, 6, 8, 10, 12, 14, 16, 18, 20, -1, 22, 24, 26, 28, 30, -1, 32, 34, -1, 36, 38, 40, 42, 44, 46, 48, 50, 52, 54, 56, 58, 60, -1, 62, 64, 66, 68, 70, 72, 74, 76, 78, 80, 82, 84, 86, 88, 90, 92, 94, 96, 98, -1, -1, -1, -1, -1, -1, -1, -1, -1, -1, -1, -1, -1, -1, -1, -1, -1, -1, -1, -1, -1, -1, -1, -1, -1, -1, -1, -1, -1, -1, -1, -1, -1, -1, -1, -1, -1, -1, -1, -1, -1, -1, -1, -1, -1, -1], "split_conditions": [-0.46105027, -0.3692625, -0.097817935, 0.88171214, -0.67520046, 0.5308806, -0.7039159, -0.67520046, -1.317651, -1.2340896, -0.12860931, -1.012615, -0.66595376, 1.0384537, 1.4569778, 0.28093928, -0.13215819, -1.5318013, 1.7745407, -0.13249388, 1.8557411, -0.50713223, -0.011116383, -0.8553324, 0.83957964, -1.012615, -0.50713223, 1.1793216, 1.4663016, -1.1035008, -0.7039159, -0.7039159, -1.5664237, -0.12755068, 1.240354, -1.5318013, 0.5308806, -0.80474174, -0.51314604, -0.14388445, -0.51314604, 1.765677, -0.807358, 0.823851, 0.58410263, 0.26945606, 0.8490751, -0.6063354, 1.6804519, 1.4663016, 1.2278323, -1.5134656, 0.6754679, -0.10750091, -0.009774699, -0.015156932, 0.06353282, -0.022801647, -0.12234403, 0.09065049, -0.012560588, -0.0892386, 0.07355003, -0.08619413, 0.069942914, -0.09046553, 0.058327597, -0.054988574, 0.10864836, -0.03134897, -0.10862612, 0.09352996, 0.039421532, 0.049368825, -0.034548342, 0.06518882, 0.027988026, -0.08089042, 0.030887881, -0.075095795, 0.11184044, -0.11691395, -0.055306476, 0.11722477, 0.07394778, -0.0125589585, 0.05199901, -0.010153744, 0.12834135, -0.051130485, 0.081206106, 0.076741815, 0.106244825, 0.07105928, -0.07253772, -0.053302318, 0.069305666, 0.055066433, -0.07246319], "split_indices": [0, 5, 4, 2, 0, 7, 7, 0, 0, 4, 0, 7, 4, 4, 7, 4, 0, 0, 2, 0, 5, 2, 2, 4, 7, 7, 2, 2, 0, 0, 7, 7, 3, 0, 3, 0, 7, 2, 5, 5, 5, 7, 3, 0, 2, 3, 4, 2, 0, 0, 4, 3, 3, 0, 0, 0, 0, 0, 0, 0, 0, 0, 0, 0, 0, 0, 0, 0, 0, 0, 0, 0, 0, 0, 0, 0, 0, 0, 0, 0, 0, 0, 0, 0, 0, 0, 0, 0, 0, 0, 0, 0, 0, 0, 0, 0, 0, 0, 0], "split_type": [0, 0, 0, 0, 0, 0, 0, 0, 0, 0, 0, 0, 0, 0, 0, 0, 0, 0, 0, 0, 0, 0, 0, 0, 0, 0, 0, 0, 0, 0, 0, 0, 0, 0, 0, 0, 0, 0, 0, 0, 0, 0, 0, 0, 0, 0, 0, 0, 0, 0, 0, 0, 0, 0, 0, 0, 0, 0, 0, 0, 0, 0, 0, 0, 0, 0, 0, 0, 0, 0, 0, 0, 0, 0, 0, 0, 0, 0, 0, 0, 0, 0, 0, 0, 0, 0, 0, 0, 0, 0, 0, 0, 0, 0, 0, 0, 0, 0, 0], "sum_hessian": [5711.8335, 1717.4268, 3994.4065, 1059.5078, 657.91895, 2391.0217, 1603.3849, 544.5721, 514.9358, 534.94507, 122.97388, 1506.149, 884.8726, 538.386, 1064.9989, 387.7852, 156.78685, 33.829132, 481.1067, 51.235455, 483.7096, 266.58057, 1239.5685, 300.65338, 584.21924, 171.25583, 367.13013, 842.8813, 222.11758, 306.53067, 81.254524, 15.414886, 18.414244, 476.17328, 4.9333987, 419.44864, 64.26093, 113.03074, 153.54982, 869.18866, 370.3798, 205.84836, 94.805016, 148.93272, 435.2865, 115.83287, 55.42296, 136.91779, 230.21236, 731.5865, 111.294785, 124.58037, 97.53722, 175.4575, 131.07317, 20.507223, 60.7473, 5.403135, 10.011752, 1.2876283, 17.126616, 3.2204602, 1.7129385, 23.040564, 396.40808, 49.49824, 14.762693, 81.856224, 31.174513, 76.95443, 76.59538, 328.86713, 540.32153, 215.6327, 154.7471, 148.00534, 57.843006, 5.0721784, 89.732834, 116.441055, 32.491676, 303.49826, 131.78825, 74.59071, 41.242157, 17.010584, 38.412373, 79.92695, 56.99084, 198.76106, 31.451288, 372.6504, 358.93613, 83.18597, 28.108812, 4.031034, 120.54934, 40.5827, 56.95452], "tree_param": {"num_deleted": "0", "num_feature": "8", "num_nodes": "99", "size_leaf_vector": "1"}}, {"base_weights": [0.00020514442, -0.5571078, 0.2353683, -1.1194373, -0.21743372, 0.043396294, 0.5237458, -0.35597712, -1.2039199, 0.038799107, -0.1274722, 0.27904508, -0.36156645, 0.21967566, 0.68128014, -0.016853472, -0.7755237, -0.33666748, -0.124505416, -0.45119265, 0.59975606, -0.23196957, 0.4857417, 0.4168302, -0.7698002, 0.74757826, -0.022501161, 0.9197373, 0.4685284, -0.58339846, 0.30362135, 0.017309582, -0.8467402, 0.48167467, -0.7611556, -1.0331446, 0.11356131, -0.20027211, 0.8096895, -0.120382145, -1.093444, 0.7270389, 0.3265307, 0.6241182, 0.32105213, -0.46132192, -1.0108838, 0.9663086, 0.2949798, 0.44483545, -0.29491886, 0.96650565, 0.46132493, 0.58505815, 0.1393729, 0.0084311105, -0.108326964, -0.07389803, 0.041170727, -0.019897496, -0.08663165, 0.08256952, -0.07884662, -0.12611094, 0.0004922843, -0.05333175, -0.12932774, 0.019189626, -0.107783616, -0.045938957, 0.11214242, 0.09905308, 0.04863318, 0.0040519796, -0.094920985, -0.06651201, -0.15919706, 0.043016046, 0.09024801, 0.039866775, -0.034264825, 0.038670756, 0.07882253, -0.0033336517, 0.038676918, -0.08203808, 0.03940004, -0.11996563, -0.05912074, 0.11138077, 0.068534836, 0.03633534, -0.08319994, -0.00912779, 0.12333603, -0.045902625, 0.075223185, 0.09970851, 0.034435757, 0.052171648, -0.04769449, 0.06457665, -0.026413659, 0.064026676, -0.032633662], "categories": [], "categories_nodes": [], "categories_segments": [], "categories_sizes": [], "default_left": [0, 0, 0, 0, 0, 0, 0, 0, 0, 0, 0, 0, 0, 0, 0, 0, 0, 0, 0, 0, 0, 0, 0, 0, 0, 0, 0, 0, 0, 0, 0, 0, 0, 0, 0, 0, 0, 0, 0, 0, 0, 0, 0, 0, 0, 0, 0, 0, 0, 0, 0, 0, 0, 0, 0, 0, 0, 0, 0, 0, 0, 0, 0, 0, 0, 0, 0, 0, 0, 0, 0, 0, 0, 0, 0, 0, 0, 0, 0, 0, 0, 0, 0, 0, 0, 0, 0, 0, 0, 0, 0, 0, 0, 0, 0, 0, 0, 0, 0, 0, 0, 0, 0, 0, 0], "id": 10, "left_children": [1, 3, 5, 7, 9, 11, 13, 15, 17, 19, -1, 21, 23, 25, 27, 29, 31, 33, -1, 35, 37, 39, 41, 43, 45, 47, 49, 51, 53, 55, 57, -1, 59, 61, 63, 65, 67, 69, 71, 73, 75, 77, 79, 81, 83, 85, 87, 89, 91, 93, 95, 97, 99, 101, 103, -1, -1, -1, -1, -1, -1, -1, -1, -1, -1, -1, -1, -1, -1, -1, -1, -1, -1, -1, -1, -1, -1, -1, -1, -1, -1, -1, -1, -1, -1, -1, -1, -1, -1, -1, -1, -1, -1, -1, -1, -1, -1, -1, -1, -1, -1, -1, -1, -1, -1], "loss_changes": [723.0644, 312.469, 214.77052, 39.320618, 276.89035, 222.48769, 74.12247, 8.924982, 19.360352, 226.62495, 0.0, 155.7745, 272.86053, 67.855606, 51.360962, 6.6702695, 2.0421295, 9.564437, 0.0, 144.77066, 64.72015, 40.7331, 40.08612, 5.670559, 41.40033, 16.237885, 46.56482, 9.851929, 20.690865, 4.518112, 2.9523978, 0.0, 0.16073608, 4.8702474, 6.8320885, 27.507248, 21.137234, 28.15302, 17.33496, 50.378475, 9.32415, 21.30159, 30.750542, 3.2949448, 4.7712975, 76.73245, 24.258667, 3.881569, 4.603502, 57.06006, 40.044243, 7.931427, 2.876914, 20.773865, 33.54587, 0.0, 0.0, 0.0, 0.0, 0.0, 0.0, 0.0, 0.0, 0.0, 0.0, 0.0, 0.0, 0.0, 0.0, 0.0, 0.0, 0.0, 0.0, 0.0, 0.0, 0.0, 0.0, 0.0, 0.0, 0.0, 0.0, 0.0, 0.0, 0.0, 0.0, 0.0, 0.0, 0.0, 0.0, 0.0, 0.0, 0.0, 0.0, 0.0, 0.0, 0.0, 0.0, 0.0, 0.0, 0.0, 0.0, 0.0, 0.0, 0.0, 0.0], "parents": [2147483647, 0, 0, 1, 1, 2, 2, 3, 3, 4, 4, 5, 5, 6, 6, 7, 7, 8, 8, 9, 9, 11, 11, 12, 12, 13, 13, 14, 14, 15, 15, 16, 16, 17, 17, 19, 19, 20, 20, 21, 21, 22, 22, 23, 23, 24, 24, 25, 25, 26, 26, 27, 27, 28, 28, 29, 29, 30, 30, 32, 32, 33, 33, 34, 34, 35, 35, 36, 36, 37, 37, 38, 38, 39, 39, 40, 40, 41, 41, 42, 42, 43, 43, 44, 44, 45, 45, 46, 46, 47, 47, 48, 48, 49, 49, 50, 50, 51, 51, 52, 52, 53, 53, 54, 54], "right_children": [2, 4, 6, 8, 10, 12, 14, 16, 18, 20, -1, 22, 24, 26, 28, 30, 32, 34, -1, 36, 38, 40, 42, 44, 46, 48, 50, 52, 54, 56, 58, -1, 60, 62, 64, 66, 68, 70, 72, 74, 76, 78, 80, 82, 84, 86, 88, 90, 92, 94, 96, 98, 100, 102, 104, -1, -1, -1, -1, -1, -1, -1, -1, -1, -1, -1, -1, -1, -1, -1, -1, -1, -1, -1, -1, -1, -1, -1, -1, -1, -1, -1, -1, -1, -1, -1, -1, -1, -1, -1, -1, -1, -1, -1, -1, -1, -1, -1, -1, -1, -1, -1, -1, -1, -1], "split_conditions": [-0.46105027, -0.35445192, -0.097817935, -1.317651, -0.67520046, 0.5308806, -0.7039159, -0.10896788, -1.3498175, 0.28093928, -0.1274722, -0.7039159, -0.66595376, 1.0384537, 0.22218145, -0.39521676, -1.5664237, -0.086517654, -0.124505416, -1.1035008, -0.7039159, 0.88171214, -0.086517654, -0.45826265, 1.1482787, -1.012615, -0.50713223, 1.4172109, 1.765677, -1.3213141, -0.51655775, 0.017309582, -1.4781603, -0.88935065, -0.51655775, -0.7039159, 0.5964275, -1.317651, 0.22218145, 1.8557411, 0.39555058, -0.80474174, 0.78250897, -0.40134618, 0.83957964, 0.823851, 0.6833058, 0.26945606, 2.7309093, -0.6063354, 1.6804519, 1.2785248, 0.88171214, 1.6816713, 1.4663016, 0.0084311105, -0.108326964, -0.07389803, 0.041170727, -0.019897496, -0.08663165, 0.08256952, -0.07884662, -0.12611094, 0.0004922843, -0.05333175, -0.12932774, 0.019189626, -0.107783616, -0.045938957, 0.11214242, 0.09905308, 0.04863318, 0.0040519796, -0.094920985, -0.06651201, -0.15919706, 0.043016046, 0.09024801, 0.039866775, -0.034264825, 0.038670756, 0.07882253, -0.0033336517, 0.038676918, -0.08203808, 0.03940004, -0.11996563, -0.05912074, 0.11138077, 0.068534836, 0.03633534, -0.08319994, -0.00912779, 0.12333603, -0.045902625, 0.075223185, 0.09970851, 0.034435757, 0.052171648, -0.04769449, 0.06457665, -0.026413659, 0.064026676, -0.032633662], "split_indices": [0, 1, 4, 0, 0, 7, 7, 6, 1, 4, 0, 7, 4, 4, 7, 7, 3, 7, 0, 0, 7, 2, 7, 5, 7, 7, 2, 4, 7, 7, 5, 0, 3, 0, 5, 7, 6, 0, 7, 5, 0, 2, 2, 3, 7, 0, 2, 3, 5, 2, 0, 2, 2, 3, 0, 0, 0, 0, 0, 0, 0, 0, 0, 0, 0, 0, 0, 0, 0, 0, 0, 0, 0, 0, 0, 0, 0, 0, 0, 0, 0, 0, 0, 0, 0, 0, 0, 0, 0, 0, 0, 0, 0, 0, 0, 0, 0, 0, 0, 0, 0, 0, 0, 0, 0], "split_type": [0, 0, 0, 0, 0, 0, 0, 0, 0, 0, 0, 0, 0, 0, 0, 0, 0, 0, 0, 0, 0, 0, 0, 0, 0, 0, 0, 0, 0, 0, 0, 0, 0, 0, 0, 0, 0, 0, 0, 0, 0, 0, 0, 0, 0, 0, 0, 0, 0, 0, 0, 0, 0, 0, 0, 0, 0, 0, 0, 0, 0, 0, 0, 0, 0, 0, 0, 0, 0, 0, 0, 0, 0, 0, 0, 0, 0, 0, 0, 0, 0, 0, 0, 0, 0, 0, 0, 0, 0, 0, 0, 0, 0, 0, 0, 0, 0, 0, 0, 0, 0, 0, 0, 0, 0], "sum_hessian": [5515.071, 1636.1622, 3878.9084, 615.27704, 1020.88513, 2329.3906, 1549.5178, 61.820957, 553.4561, 822.5131, 198.37198, 1472.7214, 856.6692, 529.6299, 1019.8879, 34.762367, 27.05859, 25.47792, 527.9782, 439.13107, 383.38208, 424.09995, 1048.6216, 294.7107, 561.9585, 165.90324, 363.72662, 479.32553, 540.5624, 12.263018, 22.49935, 1.7896372, 25.268953, 8.65596, 16.821962, 215.86407, 223.267, 79.70044, 303.68164, 376.47464, 47.6253, 415.4329, 633.18866, 91.394226, 203.31648, 247.79993, 314.15857, 111.08393, 54.819313, 133.71082, 230.01581, 433.94504, 45.3805, 398.65164, 141.91072, 5.606026, 6.6569915, 1.5651237, 20.934227, 1.0687541, 24.2002, 7.0864873, 1.5694727, 9.787991, 7.033971, 74.93391, 140.93016, 210.27992, 12.987073, 67.18191, 12.518531, 193.43678, 110.24484, 316.06705, 60.4076, 26.871784, 20.753517, 155.59306, 259.8398, 571.9383, 61.25034, 38.726196, 52.668026, 31.88183, 171.43465, 174.56113, 73.2388, 215.40837, 98.750206, 70.898964, 40.18497, 52.322502, 2.4968092, 80.121155, 53.589657, 199.33765, 30.678162, 413.04083, 20.9042, 43.05334, 2.3271608, 372.27737, 26.37426, 68.192, 73.71872], "tree_param": {"num_deleted": "0", "num_feature": "8", "num_nodes": "105", "size_leaf_vector": "1"}}, {"base_weights": [-0.00012351871, -0.5292282, 0.21851006, -1.0803901, -0.20475312, 0.0398597, 0.48900384, -0.32743454, -1.1689717, 0.035878096, -0.124083005, 0.25690544, -0.33715105, 0.20259525, 0.6410157, -0.8588138, -0.08945387, -0.3174806, -0.12111973, -0.41971606, 0.5614455, -0.38592935, 0.39861825, 0.38338092, -0.72252214, 0.6974103, -0.019382305, 0.87916523, 0.4345975, -0.19406517, -0.117559314, -0.68261945, 0.16801561, 0.07543707, -0.11146422, -0.98484266, 0.102148645, -0.17901307, 0.7651144, -0.05238085, -0.62875783, 0.5256368, 0.10830889, 0.5829393, 0.29304504, -0.56747484, -1.1929904, 0.9116013, 0.26791674, -0.162498, 0.7410639, 0.92666006, 0.42800233, 0.60209966, 0.22893478, 0.05181654, -0.0839255, 0.0118108615, -0.13018554, 0.029078512, -0.05780229, -0.074964456, 0.04976981, -0.048973013, -0.12571721, 0.015417797, -0.1595671, -0.041289777, 0.10209123, 0.04391082, 0.09467997, -0.045801606, 0.10321187, -0.02719363, -0.099844866, 0.08575783, 0.033352587, -0.014607471, 0.07143172, 0.035585213, 0.07438917, 0.041903995, 0.009798981, -0.08620565, -0.007853801, -0.12565832, -0.095736764, 0.106082134, 0.06352907, -0.0003409641, 0.056850053, -0.004967739, -0.13714533, 0.0991467, 0.020956589, 0.09582334, 0.031570263, -0.06642478, 0.04737891, -0.053466927, 0.06430837, -0.10551872, 0.028790448], "categories": [], "categories_nodes": [], "categories_segments": [], "categories_sizes": [], "default_left": [0, 0, 0, 0, 0, 0, 0, 0, 0, 0, 0, 0, 0, 0, 0, 0, 0, 0, 0, 0, 0, 0, 0, 0, 0, 0, 0, 0, 0, 0, 0, 0, 0, 0, 0, 0, 0, 0, 0, 0, 0, 0, 0, 0, 0, 0, 0, 0, 0, 0, 0, 0, 0, 0, 0, 0, 0, 0, 0, 0, 0, 0, 0, 0, 0, 0, 0, 0, 0, 0, 0, 0, 0, 0, 0, 0, 0, 0, 0, 0, 0, 0, 0, 0, 0, 0, 0, 0, 0, 0, 0, 0, 0, 0, 0, 0, 0, 0, 0, 0, 0, 0, 0], "id": 11, "left_children": [1, 3, 5, 7, 9, 11, 13, 15, 17, 19, -1, 21, 23, 25, 27, 29, 31, 33, -1, 35, 37, 39, 41, 43, 45, 47, 49, 51, 53, 55, -1, 57, 59, 61, -1, 63, 65, 67, 69, 71, 73, 75, 77, 79, 81, 83, 85, 87, 89, 91, 93, 95, 97, 99, 101, -1, -1, -1, -1, -1, -1, -1, -1, -1, -1, -1, -1, -1, -1, -1, -1, -1, -1, -1, -1, -1, -1, -1, -1, -1, -1, -1, -1, -1, -1, -1, -1, -1, -1, -1, -1, -1, -1, -1, -1, -1, -1, -1, -1, -1, -1, -1, -1], "loss_changes": [616.6391, 278.51944, 182.25497, 38.12372, 244.94223, 186.05933, 65.18625, 7.7837286, 18.174072, 191.34277, 0.0, 131.60052, 230.96564, 57.308254, 47.773346, 3.796238, 6.8418436, 8.14717, 0.0, 126.35389, 56.0914, 21.118282, 43.557465, 5.0599403, 38.83264, 14.618866, 39.415646, 9.328705, 18.007652, 3.8195605, 0.0, 6.8624873, 3.0548668, 6.707022, 0.0, 27.1091, 19.98673, 23.111517, 16.831009, 49.351437, 19.651611, 52.165985, 55.794178, 3.0031414, 4.917162, 58.88275, 0.79507446, 3.753769, 4.5021095, 41.490753, 7.427389, 7.601959, 2.5695162, 13.840179, 18.329876, 0.0, 0.0, 0.0, 0.0, 0.0, 0.0, 0.0, 0.0, 0.0, 0.0, 0.0, 0.0, 0.0, 0.0, 0.0, 0.0, 0.0, 0.0, 0.0, 0.0, 0.0, 0.0, 0.0, 0.0, 0.0, 0.0, 0.0, 0.0, 0.0, 0.0, 0.0, 0.0, 0.0, 0.0, 0.0, 0.0, 0.0, 0.0, 0.0, 0.0, 0.0, 0.0, 0.0, 0.0, 0.0, 0.0, 0.0, 0.0], "parents": [2147483647, 0, 0, 1, 1, 2, 2, 3, 3, 4, 4, 5, 5, 6, 6, 7, 7, 8, 8, 9, 9, 11, 11, 12, 12, 13, 13, 14, 14, 15, 15, 16, 16, 17, 17, 19, 19, 20, 20, 21, 21, 22, 22, 23, 23, 24, 24, 25, 25, 26, 26, 27, 27, 28, 28, 29, 29, 31, 31, 32, 32, 33, 33, 35, 35, 36, 36, 37, 37, 38, 38, 39, 39, 40, 40, 41, 41, 42, 42, 43, 43, 44, 44, 45, 45, 46, 46, 47, 47, 48, 48, 49, 49, 50, 50, 51, 51, 52, 52, 53, 53, 54, 54], "right_children": [2, 4, 6, 8, 10, 12, 14, 16, 18, 20, -1, 22, 24, 26, 28, 30, 32, 34, -1, 36, 38, 40, 42, 44, 46, 48, 50, 52, 54, 56, -1, 58, 60, 62, -1, 64, 66, 68, 70, 72, 74, 76, 78, 80, 82, 84, 86, 88, 90, 92, 94, 96, 98, 100, 102, -1, -1, -1, -1, -1, -1, -1, -1, -1, -1, -1, -1, -1, -1, -1, -1, -1, -1, -1, -1, -1, -1, -1, -1, -1, -1, -1, -1, -1, -1, -1, -1, -1, -1, -1, -1, -1, -1, -1, -1, -1, -1, -1, -1, -1, -1, -1, -1], "split_conditions": [-0.46105027, -0.35445192, -0.097817935, -1.317651, -0.67520046, 0.5308806, -0.7039159, -1.5318013, -1.3498175, 0.28093928, -0.124083005, -1.012615, -0.66595376, 1.0384537, 0.22218145, -0.7039159, -0.39521676, -0.88935065, -0.12111973, -1.1035008, -0.7039159, -0.50713223, -0.011116383, -0.45826265, 1.765677, -1.012615, 1.6804519, 1.4172109, -0.51655775, -0.5164094, -0.117559314, -1.3213141, 0.077670425, -0.51670605, -0.11146422, -0.7039159, 3.339077, -1.317651, -1.1023512, -0.80474174, -0.51314604, -0.14388445, 0.823851, -0.40134618, 1.4569778, 0.823851, 0.6833058, 0.26945606, -0.18200026, 1.1793216, -1.012615, 1.2785248, -0.2513932, -1.0031481, -0.51314604, 0.05181654, -0.0839255, 0.0118108615, -0.13018554, 0.029078512, -0.05780229, -0.074964456, 0.04976981, -0.048973013, -0.12571721, 0.015417797, -0.1595671, -0.041289777, 0.10209123, 0.04391082, 0.09467997, -0.045801606, 0.10321187, -0.02719363, -0.099844866, 0.08575783, 0.033352587, -0.014607471, 0.07143172, 0.035585213, 0.07438917, 0.041903995, 0.009798981, -0.08620565, -0.007853801, -0.12565832, -0.095736764, 0.106082134, 0.06352907, -0.0003409641, 0.056850053, -0.004967739, -0.13714533, 0.0991467, 0.020956589, 0.09582334, 0.031570263, -0.06642478, 0.04737891, -0.053466927, 0.06430837, -0.10551872, 0.028790448], "split_indices": [0, 1, 4, 0, 0, 7, 7, 0, 1, 4, 0, 7, 4, 4, 7, 7, 7, 0, 0, 0, 7, 2, 2, 5, 7, 7, 0, 4, 5, 5, 0, 7, 6, 5, 0, 7, 5, 0, 2, 2, 5, 5, 0, 3, 7, 0, 2, 3, 6, 2, 7, 2, 6, 2, 5, 0, 0, 0, 0, 0, 0, 0, 0, 0, 0, 0, 0, 0, 0, 0, 0, 0, 0, 0, 0, 0, 0, 0, 0, 0, 0, 0, 0, 0, 0, 0, 0, 0, 0, 0, 0, 0, 0, 0, 0, 0, 0, 0, 0, 0, 0, 0, 0], "split_type": [0, 0, 0, 0, 0, 0, 0, 0, 0, 0, 0, 0, 0, 0, 0, 0, 0, 0, 0, 0, 0, 0, 0, 0, 0, 0, 0, 0, 0, 0, 0, 0, 0, 0, 0, 0, 0, 0, 0, 0, 0, 0, 0, 0, 0, 0, 0, 0, 0, 0, 0, 0, 0, 0, 0, 0, 0, 0, 0, 0, 0, 0, 0, 0, 0, 0, 0, 0, 0, 0, 0, 0, 0, 0, 0, 0, 0, 0, 0, 0, 0, 0, 0, 0, 0, 0, 0, 0, 0, 0, 0, 0, 0, 0, 0, 0, 0, 0, 0, 0, 0, 0, 0], "sum_hessian": [5328.5566, 1557.6184, 3770.9385, 576.3261, 981.29224, 2271.711, 1499.2273, 61.1594, 515.1667, 797.12384, 184.16844, 1441.916, 829.795, 520.6303, 978.59705, 18.111057, 43.048344, 24.742651, 490.42407, 427.09393, 370.02988, 260.142, 1181.774, 289.15823, 540.6367, 160.5664, 360.0639, 452.86124, 525.7358, 6.365639, 11.745418, 12.530032, 30.518312, 17.180046, 7.5626063, 204.62195, 222.47198, 79.849655, 290.18024, 110.1104, 150.0316, 821.5237, 360.25037, 88.40725, 200.75098, 408.2878, 132.34892, 106.38771, 54.17869, 303.69495, 56.36896, 408.77475, 44.08648, 288.68692, 237.04887, 3.119203, 3.2464359, 5.817171, 6.7128606, 26.72983, 3.7884831, 5.5534697, 11.626575, 73.60381, 131.01814, 216.73924, 5.7327385, 67.3734, 12.476257, 105.06824, 185.112, 80.55725, 29.553148, 77.22777, 72.80383, 299.89023, 521.6335, 254.27324, 105.97712, 38.001686, 50.40556, 121.26936, 79.48161, 254.3065, 153.98132, 100.808464, 31.540457, 67.23734, 39.15037, 28.994781, 25.18391, 278.7252, 24.969753, 37.72858, 18.640379, 388.14752, 20.627249, 1.2302909, 42.856186, 9.6266985, 279.0602, 9.666119, 227.38277], "tree_param": {"num_deleted": "0", "num_feature": "8", "num_nodes": "103", "size_leaf_vector": "1"}}, {"base_weights": [-0.0005028272, -0.50302845, 0.20245475, -0.25983694, -0.12075521, 0.04263894, 0.46445867, -0.12198839, 0.12403982, 0.23817271, -0.2940533, 0.1773674, 0.6235411, -0.7302066, 0.2956651, -0.17758672, 0.41554445, 0.3526169, -0.6250946, 0.32644886, -0.47929573, 0.7247329, -0.0018011598, -0.014375033, -0.12050625, -0.21834625, 0.48578802, -0.06788586, -0.8676518, 0.56620544, 0.1970549, 0.44276017, 0.16014414, -0.87954086, -0.3129932, 0.52715886, -0.24822883, -0.8053198, -0.16951846, 0.86975014, 0.4092042, -0.2678071, 0.6005561, 0.011492457, -0.08325262, -0.034783185, 0.089329846, 0.060516793, -0.037153997, 0.04468453, -0.030719275, -0.1341872, -0.015163538, 0.03034073, 0.07288527, 0.02389551, -0.13197385, 0.054140784, 0.019530902, -0.05161465, 0.026171345, -0.069845326, -0.12824409, 0.08109101, -0.05051134, 0.058217105, -0.0046330523, -0.14716497, -0.010329622, -0.06856123, -0.14706492, 0.0124089895, -0.053955752, 0.08779006, -0.11796488, 0.05653262, -0.048546012, 0.05691306, -0.06580179, 0.03456428, 0.09646526], "categories": [], "categories_nodes": [], "categories_segments": [], "categories_sizes": [], "default_left": [0, 0, 0, 0, 0, 0, 0, 0, 0, 0, 0, 0, 0, 0, 0, 0, 0, 0, 0, 0, 0, 0, 0, 0, 0, 0, 0, 0, 0, 0, 0, 0, 0, 0, 0, 0, 0, 0, 0, 0, 0, 0, 0, 0, 0, 0, 0, 0, 0, 0, 0, 0, 0, 0, 0, 0, 0, 0, 0, 0, 0, 0, 0, 0, 0, 0, 0, 0, 0, 0, 0, 0, 0, 0, 0, 0, 0, 0, 0, 0, 0], "id": 12, "left_children": [1, 3, 5, 7, -1, 9, 11, -1, 13, 15, 17, 19, 21, 23, 25, 27, 29, 31, 33, 35, 37, 39, 41, 43, -1, 45, 47, 49, 51, 53, 55, 57, 59, 61, 63, 65, 67, 69, 71, 73, 75, 77, 79, -1, -1, -1, -1, -1, -1, -1, -1, -1, -1, -1, -1, -1, -1, -1, -1, -1, -1, -1, -1, -1, -1, -1, -1, -1, -1, -1, -1, -1, -1, -1, -1, -1, -1, -1, -1, -1, -1], "loss_changes": [526.03375, 253.90787, 153.81316, 407.1303, 0.0, 150.37285, 63.455475, 0.0, 116.00545, 106.62096, 179.8735, 48.874405, 56.647278, 44.993004, 64.44473, 32.701767, 33.236176, 4.8701515, 43.832504, 46.97959, 9.203657, 34.89966, 20.298153, 5.78917, 0.0, 25.997738, 49.44471, 46.26642, 19.923634, 25.38501, 26.68979, 4.6148376, 6.482192, 21.387848, 54.607185, 9.534241, 18.610712, 2.5592098, 5.356853, 9.838196, 34.4258, 29.071274, 3.268382, 0.0, 0.0, 0.0, 0.0, 0.0, 0.0, 0.0, 0.0, 0.0, 0.0, 0.0, 0.0, 0.0, 0.0, 0.0, 0.0, 0.0, 0.0, 0.0, 0.0, 0.0, 0.0, 0.0, 0.0, 0.0, 0.0, 0.0, 0.0, 0.0, 0.0, 0.0, 0.0, 0.0, 0.0, 0.0, 0.0, 0.0, 0.0], "parents": [2147483647, 0, 0, 1, 1, 2, 2, 3, 3, 5, 5, 6, 6, 8, 8, 9, 9, 10, 10, 11, 11, 12, 12, 13, 13, 14, 14, 15, 15, 16, 16, 17, 17, 18, 18, 19, 19, 20, 20, 21, 21, 22, 22, 23, 23, 25, 25, 26, 26, 27, 27, 28, 28, 29, 29, 30, 30, 31, 31, 32, 32, 33, 33, 34, 34, 35, 35, 36, 36, 37, 37, 38, 38, 39, 39, 40, 40, 41, 41, 42, 42], "right_children": [2, 4, 6, 8, -1, 10, 12, -1, 14, 16, 18, 20, 22, 24, 26, 28, 30, 32, 34, 36, 38, 40, 42, 44, -1, 46, 48, 50, 52, 54, 56, 58, 60, 62, 64, 66, 68, 70, 72, 74, 76, 78, 80, -1, -1, -1, -1, -1, -1, -1, -1, -1, -1, -1, -1, -1, -1, -1, -1, -1, -1, -1, -1, -1, -1, -1, -1, -1, -1, -1, -1, -1, -1, -1, -1, -1, -1, -1, -1, -1, -1], "split_conditions": [-0.46105027, -0.67520046, 0.09156068, -1.2340896, -0.12075521, 0.5308806, -0.7039159, -0.12198839, -1.5318013, -0.7039159, -0.66595376, 1.4172109, 1.765677, -0.7039159, -0.7039159, 1.8557411, 0.22218145, -0.8553324, 0.823851, 1.4168808, -0.17659046, 1.2278323, 1.2278323, 0.9809153, -0.12050625, 0.4703179, 0.18248542, -0.50713223, -0.24690005, -0.80474174, 0.7105636, 1.765677, -0.24421303, 0.6097008, 0.83957964, 1.8557411, -0.8521347, -0.19655804, 0.6833058, 1.1385965, 0.88171214, 0.18140036, 1.0380012, 0.011492457, -0.08325262, -0.034783185, 0.089329846, 0.060516793, -0.037153997, 0.04468453, -0.030719275, -0.1341872, -0.015163538, 0.03034073, 0.07288527, 0.02389551, -0.13197385, 0.054140784, 0.019530902, -0.05161465, 0.026171345, -0.069845326, -0.12824409, 0.08109101, -0.05051134, 0.058217105, -0.0046330523, -0.14716497, -0.010329622, -0.06856123, -0.14706492, 0.0124089895, -0.053955752, 0.08779006, -0.11796488, 0.05653262, -0.048546012, 0.05691306, -0.06580179, 0.03456428, 0.09646526], "split_indices": [0, 0, 4, 4, 0, 7, 7, 0, 0, 7, 4, 4, 7, 7, 7, 5, 7, 4, 0, 3, 6, 4, 4, 2, 0, 4, 6, 2, 0, 2, 6, 7, 6, 0, 7, 5, 1, 6, 2, 1, 2, 0, 0, 0, 0, 0, 0, 0, 0, 0, 0, 0, 0, 0, 0, 0, 0, 0, 0, 0, 0, 0, 0, 0, 0, 0, 0, 0, 0, 0, 0, 0, 0, 0, 0, 0, 0, 0, 0, 0, 0], "split_type": [0, 0, 0, 0, 0, 0, 0, 0, 0, 0, 0, 0, 0, 0, 0, 0, 0, 0, 0, 0, 0, 0, 0, 0, 0, 0, 0, 0, 0, 0, 0, 0, 0, 0, 0, 0, 0, 0, 0, 0, 0, 0, 0, 0, 0, 0, 0, 0, 0, 0, 0, 0, 0, 0, 0, 0, 0, 0, 0, 0, 0, 0, 0, 0, 0, 0, 0, 0, 0, 0, 0, 0, 0, 0, 0, 0, 0, 0, 0, 0, 0], "sum_hessian": [5155.6304, 1482.7769, 3672.8535, 1103.3016, 379.47522, 2282.0334, 1390.8201, 314.52368, 788.77795, 1443.8254, 838.20795, 496.64853, 894.1716, 131.4157, 657.36224, 431.76553, 1012.0599, 283.78503, 554.4229, 405.16684, 91.48168, 769.49445, 124.677124, 52.82053, 78.59516, 177.45396, 479.9083, 373.4896, 58.27592, 598.0671, 413.9928, 192.3833, 91.40173, 304.42053, 250.0024, 300.35022, 104.81663, 43.792614, 47.689064, 525.99176, 243.50273, 86.87001, 37.807114, 46.35429, 6.4662433, 159.55582, 17.898136, 421.5088, 58.399483, 118.25809, 255.23152, 34.5315, 23.744421, 229.7357, 368.33136, 403.6838, 10.308981, 136.69943, 55.683876, 11.401839, 79.99989, 211.90929, 92.511246, 36.02651, 213.97589, 274.04703, 26.303198, 10.132345, 94.68428, 38.835697, 4.9569154, 26.961254, 20.727812, 524.47754, 1.5142016, 207.6374, 35.86533, 27.477276, 59.392735, 23.384407, 14.422706], "tree_param": {"num_deleted": "0", "num_feature": "8", "num_nodes": "81", "size_leaf_vector": "1"}}, {"base_weights": [-0.0009603753, -0.4780704, 0.18742782, -0.24462937, -0.118341304, 0.032572478, 0.42478803, -0.11944213, 0.11401472, 0.21715288, -0.2945113, 0.1712646, 0.5668004, -0.6928683, 0.2715076, -0.3399605, 0.34157988, 0.32353896, -0.6377911, 0.6226258, -0.023543121, 0.80577755, 0.37032452, -0.014419869, -0.11791768, -0.1963133, 0.44852883, -0.04629668, -0.5498341, 0.46087188, 0.07716995, 0.4264438, 0.15810813, -0.17467564, -0.7999189, 0.8400091, 0.2048228, 0.396287, -0.26145935, 0.90207535, 0.5644329, 0.5364135, 0.17024426, 0.010336413, -0.07786118, -0.031302534, 0.082194105, 0.0720052, 0.011561993, -0.040655714, 0.09637002, -0.021334091, -0.092010364, 0.01661397, 0.065468304, -0.015353567, 0.06522309, 0.004331231, 0.051392533, -0.03688701, 0.027112264, -0.07044769, 0.07348765, -0.10033093, -0.037229296, 0.04073515, 0.0939324, -0.026147444, 0.038403332, 0.07060367, -0.0840547, -0.038813062, 0.060401496, 0.07855274, 0.101122595, 0.06728719, -0.11904287, -0.053235438, 0.05776871, 0.033936646, -0.021318268], "categories": [], "categories_nodes": [], "categories_segments": [], "categories_sizes": [], "default_left": [0, 0, 0, 0, 0, 0, 0, 0, 0, 0, 0, 0, 0, 0, 0, 0, 0, 0, 0, 0, 0, 0, 0, 0, 0, 0, 0, 0, 0, 0, 0, 0, 0, 0, 0, 0, 0, 0, 0, 0, 0, 0, 0, 0, 0, 0, 0, 0, 0, 0, 0, 0, 0, 0, 0, 0, 0, 0, 0, 0, 0, 0, 0, 0, 0, 0, 0, 0, 0, 0, 0, 0, 0, 0, 0, 0, 0, 0, 0, 0, 0], "id": 13, "left_children": [1, 3, 5, 7, -1, 9, 11, -1, 13, 15, 17, 19, 21, 23, 25, 27, 29, 31, 33, 35, 37, 39, 41, 43, -1, 45, 47, 49, 51, 53, 55, 57, 59, 61, 63, 65, 67, 69, 71, 73, 75, 77, 79, -1, -1, -1, -1, -1, -1, -1, -1, -1, -1, -1, -1, -1, -1, -1, -1, -1, -1, -1, -1, -1, -1, -1, -1, -1, -1, -1, -1, -1, -1, -1, -1, -1, -1, -1, -1, -1, -1], "loss_changes": [448.55328, 232.31909, 131.49289, 362.12122, 0.0, 130.8492, 50.75795, 0.0, 98.33117, 96.150536, 166.09726, 44.73303, 42.19095, 41.689102, 53.660305, 15.593773, 35.700012, 4.6969852, 37.62961, 13.756836, 35.683754, 8.960419, 16.47361, 4.9220715, 0.0, 21.44463, 42.36651, 39.222984, 18.206944, 44.476364, 46.990067, 5.7410774, 6.586722, 63.989456, 32.008316, 3.938095, 4.596943, 50.108345, 25.226772, 2.889389, 23.42326, 12.301994, 14.829121, 0.0, 0.0, 0.0, 0.0, 0.0, 0.0, 0.0, 0.0, 0.0, 0.0, 0.0, 0.0, 0.0, 0.0, 0.0, 0.0, 0.0, 0.0, 0.0, 0.0, 0.0, 0.0, 0.0, 0.0, 0.0, 0.0, 0.0, 0.0, 0.0, 0.0, 0.0, 0.0, 0.0, 0.0, 0.0, 0.0, 0.0, 0.0], "parents": [2147483647, 0, 0, 1, 1, 2, 2, 3, 3, 5, 5, 6, 6, 8, 8, 9, 9, 10, 10, 11, 11, 12, 12, 13, 13, 14, 14, 15, 15, 16, 16, 17, 17, 18, 18, 19, 19, 20, 20, 21, 21, 22, 22, 23, 23, 25, 25, 26, 26, 27, 27, 28, 28, 29, 29, 30, 30, 31, 31, 32, 32, 33, 33, 34, 34, 35, 35, 36, 36, 37, 37, 38, 38, 39, 39, 40, 40, 41, 41, 42, 42], "right_children": [2, 4, 6, 8, -1, 10, 12, -1, 14, 16, 18, 20, 22, 24, 26, 28, 30, 32, 34, 36, 38, 40, 42, 44, -1, 46, 48, 50, 52, 54, 56, 58, 60, 62, 64, 66, 68, 70, 72, 74, 76, 78, 80, -1, -1, -1, -1, -1, -1, -1, -1, -1, -1, -1, -1, -1, -1, -1, -1, -1, -1, -1, -1, -1, -1, -1, -1, -1, -1, -1, -1, -1, -1, -1, -1, -1, -1, -1, -1, -1, -1], "split_conditions": [-0.46105027, -0.67520046, -0.097817935, -1.2340896, -0.118341304, 0.5308806, -0.7039159, -0.11944213, -1.5318013, -1.012615, -0.66595376, 1.0384537, 0.22218145, -0.7039159, -0.7039159, -0.50713223, -0.011116383, 1.377728, 0.83957964, -1.012615, -0.50713223, 1.2278323, -0.51655775, 0.9809153, -0.11791768, 0.4703179, 0.22218145, -0.80474174, -0.51314604, -0.80474174, 0.823851, -1.6975702, 0.83957964, -0.8521347, 0.58410263, -0.6063354, 0.6409137, 3.339077, 1.6804519, 1.4663016, 0.88171214, -1.0031481, 1.765677, 0.010336413, -0.07786118, -0.031302534, 0.082194105, 0.0720052, 0.011561993, -0.040655714, 0.09637002, -0.021334091, -0.092010364, 0.01661397, 0.065468304, -0.015353567, 0.06522309, 0.004331231, 0.051392533, -0.03688701, 0.027112264, -0.07044769, 0.07348765, -0.10033093, -0.037229296, 0.04073515, 0.0939324, -0.026147444, 0.038403332, 0.07060367, -0.0840547, -0.038813062, 0.060401496, 0.07855274, 0.101122595, 0.06728719, -0.11904287, -0.053235438, 0.05776871, 0.033936646, -0.021318268], "split_indices": [0, 0, 4, 4, 0, 7, 7, 0, 0, 7, 4, 4, 7, 7, 7, 2, 2, 2, 7, 7, 2, 4, 5, 2, 0, 4, 7, 2, 5, 2, 0, 2, 7, 1, 2, 2, 1, 5, 0, 0, 2, 2, 7, 0, 0, 0, 0, 0, 0, 0, 0, 0, 0, 0, 0, 0, 0, 0, 0, 0, 0, 0, 0, 0, 0, 0, 0, 0, 0, 0, 0, 0, 0, 0, 0, 0, 0, 0, 0, 0, 0], "split_type": [0, 0, 0, 0, 0, 0, 0, 0, 0, 0, 0, 0, 0, 0, 0, 0, 0, 0, 0, 0, 0, 0, 0, 0, 0, 0, 0, 0, 0, 0, 0, 0, 0, 0, 0, 0, 0, 0, 0, 0, 0, 0, 0, 0, 0, 0, 0, 0, 0, 0, 0, 0, 0, 0, 0, 0, 0, 0, 0, 0, 0, 0, 0, 0, 0, 0, 0, 0, 0, 0, 0, 0, 0, 0, 0, 0, 0, 0, 0, 0, 0], "sum_hessian": [4988.477, 1411.6951, 3576.782, 1061.6702, 350.02484, 2165.2778, 1411.5042, 290.3665, 771.3037, 1384.379, 780.8988, 507.57562, 903.9286, 125.406975, 645.8967, 252.42615, 1131.9529, 278.87045, 502.02838, 152.36237, 355.21326, 406.45224, 497.47635, 52.789734, 72.61724, 177.28082, 468.6159, 105.71956, 146.70659, 779.51953, 352.43338, 170.9529, 107.91755, 130.71642, 371.31195, 99.55386, 52.808502, 128.24492, 226.96834, 288.57254, 117.879684, 270.90988, 226.56645, 46.489155, 6.3005776, 159.67186, 17.608957, 257.46362, 211.15227, 78.364746, 27.354816, 77.68462, 69.021965, 309.9818, 469.53775, 252.04842, 100.38495, 32.056107, 138.89679, 18.657076, 89.260475, 82.74442, 47.971992, 250.71765, 120.59431, 19.538305, 80.01556, 14.533638, 38.274864, 102.90324, 25.341679, 198.47148, 28.496853, 143.52126, 145.05128, 111.6001, 6.2795887, 9.63058, 261.2793, 157.29958, 69.26688], "tree_param": {"num_deleted": "0", "num_feature": "8", "num_nodes": "81", "size_leaf_vector": "1"}}, {"base_weights": [-0.001207445, -0.45418248, 0.17357014, -0.23010527, -0.11623633, 0.41416332, 0.036418863, -0.11722062, 0.10479992, 0.10894338, 0.97725034, -0.13203788, 0.29336622, -0.65747994, 0.24924208, 0.22684385, -0.47574824, 0.9811247, -0.033435594, -0.057714567, -0.73777324, 0.68258137, 0.12097981, -0.014376402, -0.11564392, 0.36446005, -0.36412618, -0.24930257, 0.4333517, -0.7151636, 0.71873367, 0.91824913, 1.0983735, -0.028422851, -1.42473, 0.08422553, -1.080317, 0.7939652, 0.4055204, -0.19322503, 0.3283766, 0.031104505, -0.02541837, -0.012021146, 0.05284651, -0.10897958, -0.022330513, 0.041779976, -0.04561695, 0.025267964, 0.07607945, -0.040188815, -0.12437625, 0.011182755, 0.09262793, 0.09326797, 0.042811923, 